digraph Tree {
node [shape=box, style="filled", color="black"] ;
0 [label="Age <= 42.5\ngini = 0.318\nsamples = 7000\nvalue = [5609, 1391]\nclass = NotExited", fillcolor="#eba06a"] ;
1 [label="NumOfProducts <= 2.5\ngini = 0.198\nsamples = 4977\nvalue = [4422, 555]\nclass = NotExited", fillcolor="#e89152"] ;
0 -> 1 [labeldistance=2.5, labelangle=45, headlabel="True"] ;
2 [label="NumOfProducts <= 1.5\ngini = 0.178\nsamples = 4876\nvalue = [4394, 482]\nclass = NotExited", fillcolor="#e88f4f"] ;
1 -> 2 ;
3 [label="Geography_Category2 <= 0.5\ngini = 0.265\nsamples = 2415\nvalue = [2035, 380]\nclass = NotExited", fillcolor="#ea995e"] ;
2 -> 3 ;
4 [label="Age <= 39.5\ngini = 0.22\nsamples = 1834\nvalue = [1603, 231]\nclass = NotExited", fillcolor="#e99356"] ;
3 -> 4 ;
5 [label="Balance <= 72715.531\ngini = 0.179\nsamples = 1526\nvalue = [1374, 152]\nclass = NotExited", fillcolor="#e88f4f"] ;
4 -> 5 ;
6 [label="Gender <= 0.5\ngini = 0.299\nsamples = 377\nvalue = [308, 69]\nclass = NotExited", fillcolor="#eb9d65"] ;
5 -> 6 ;
7 [label="Age <= 30.5\ngini = 0.38\nsamples = 157\nvalue = [117, 40]\nclass = NotExited", fillcolor="#eeac7d"] ;
6 -> 7 ;
8 [label="Age <= 26.5\ngini = 0.223\nsamples = 47\nvalue = [41, 6]\nclass = NotExited", fillcolor="#e99356"] ;
7 -> 8 ;
9 [label="Geography_Category1 <= 0.5\ngini = 0.473\nsamples = 13\nvalue = [8, 5]\nclass = NotExited", fillcolor="#f5d0b5"] ;
8 -> 9 ;
10 [label="Age <= 25.0\ngini = 0.346\nsamples = 9\nvalue = [7, 2]\nclass = NotExited", fillcolor="#eca572"] ;
9 -> 10 ;
11 [label="EstimatedSalary <= 154960.211\ngini = 0.219\nsamples = 8\nvalue = [7, 1]\nclass = NotExited", fillcolor="#e99355"] ;
10 -> 11 ;
12 [label="gini = 0.0\nsamples = 6\nvalue = [6, 0]\nclass = NotExited", fillcolor="#e58139"] ;
11 -> 12 ;
13 [label="Age <= 22.5\ngini = 0.5\nsamples = 2\nvalue = [1, 1]\nclass = NotExited", fillcolor="#ffffff"] ;
11 -> 13 ;
14 [label="gini = 0.0\nsamples = 1\nvalue = [1, 0]\nclass = NotExited", fillcolor="#e58139"] ;
13 -> 14 ;
15 [label="gini = 0.0\nsamples = 1\nvalue = [0, 1]\nclass = Exited", fillcolor="#399de5"] ;
13 -> 15 ;
16 [label="gini = 0.0\nsamples = 1\nvalue = [0, 1]\nclass = Exited", fillcolor="#399de5"] ;
10 -> 16 ;
17 [label="Tenure <= 9.5\ngini = 0.375\nsamples = 4\nvalue = [1, 3]\nclass = Exited", fillcolor="#7bbeee"] ;
9 -> 17 ;
18 [label="gini = 0.0\nsamples = 3\nvalue = [0, 3]\nclass = Exited", fillcolor="#399de5"] ;
17 -> 18 ;
19 [label="gini = 0.0\nsamples = 1\nvalue = [1, 0]\nclass = NotExited", fillcolor="#e58139"] ;
17 -> 19 ;
20 [label="EstimatedSalary <= 191958.211\ngini = 0.057\nsamples = 34\nvalue = [33, 1]\nclass = NotExited", fillcolor="#e6853f"] ;
8 -> 20 ;
21 [label="gini = 0.0\nsamples = 32\nvalue = [32, 0]\nclass = NotExited", fillcolor="#e58139"] ;
20 -> 21 ;
22 [label="CreditScore <= 620.5\ngini = 0.5\nsamples = 2\nvalue = [1, 1]\nclass = NotExited", fillcolor="#ffffff"] ;
20 -> 22 ;
23 [label="gini = 0.0\nsamples = 1\nvalue = [1, 0]\nclass = NotExited", fillcolor="#e58139"] ;
22 -> 23 ;
24 [label="gini = 0.0\nsamples = 1\nvalue = [0, 1]\nclass = Exited", fillcolor="#399de5"] ;
22 -> 24 ;
25 [label="Age <= 31.5\ngini = 0.427\nsamples = 110\nvalue = [76, 34]\nclass = NotExited", fillcolor="#f1b992"] ;
7 -> 25 ;
26 [label="Tenure <= 7.5\ngini = 0.278\nsamples = 12\nvalue = [2, 10]\nclass = Exited", fillcolor="#61b1ea"] ;
25 -> 26 ;
27 [label="gini = 0.0\nsamples = 10\nvalue = [0, 10]\nclass = Exited", fillcolor="#399de5"] ;
26 -> 27 ;
28 [label="gini = 0.0\nsamples = 2\nvalue = [2, 0]\nclass = NotExited", fillcolor="#e58139"] ;
26 -> 28 ;
29 [label="EstimatedSalary <= 20807.295\ngini = 0.37\nsamples = 98\nvalue = [74, 24]\nclass = NotExited", fillcolor="#edaa79"] ;
25 -> 29 ;
30 [label="EstimatedSalary <= 11789.45\ngini = 0.463\nsamples = 11\nvalue = [4, 7]\nclass = Exited", fillcolor="#aad5f4"] ;
29 -> 30 ;
31 [label="Tenure <= 7.5\ngini = 0.32\nsamples = 5\nvalue = [4, 1]\nclass = NotExited", fillcolor="#eca06a"] ;
30 -> 31 ;
32 [label="gini = 0.0\nsamples = 3\nvalue = [3, 0]\nclass = NotExited", fillcolor="#e58139"] ;
31 -> 32 ;
33 [label="Age <= 37.5\ngini = 0.5\nsamples = 2\nvalue = [1, 1]\nclass = NotExited", fillcolor="#ffffff"] ;
31 -> 33 ;
34 [label="gini = 0.0\nsamples = 1\nvalue = [0, 1]\nclass = Exited", fillcolor="#399de5"] ;
33 -> 34 ;
35 [label="gini = 0.0\nsamples = 1\nvalue = [1, 0]\nclass = NotExited", fillcolor="#e58139"] ;
33 -> 35 ;
36 [label="gini = 0.0\nsamples = 6\nvalue = [0, 6]\nclass = Exited", fillcolor="#399de5"] ;
30 -> 36 ;
37 [label="EstimatedSalary <= 192896.852\ngini = 0.314\nsamples = 87\nvalue = [70, 17]\nclass = NotExited", fillcolor="#eba069"] ;
29 -> 37 ;
38 [label="CreditScore <= 686.0\ngini = 0.303\nsamples = 86\nvalue = [70, 16]\nclass = NotExited", fillcolor="#eb9e66"] ;
37 -> 38 ;
39 [label="Tenure <= 0.5\ngini = 0.222\nsamples = 55\nvalue = [48, 7]\nclass = NotExited", fillcolor="#e99356"] ;
38 -> 39 ;
40 [label="CreditScore <= 557.5\ngini = 0.444\nsamples = 3\nvalue = [1, 2]\nclass = Exited", fillcolor="#9ccef2"] ;
39 -> 40 ;
41 [label="gini = 0.0\nsamples = 1\nvalue = [1, 0]\nclass = NotExited", fillcolor="#e58139"] ;
40 -> 41 ;
42 [label="gini = 0.0\nsamples = 2\nvalue = [0, 2]\nclass = Exited", fillcolor="#399de5"] ;
40 -> 42 ;
43 [label="CreditScore <= 538.5\ngini = 0.174\nsamples = 52\nvalue = [47, 5]\nclass = NotExited", fillcolor="#e88e4e"] ;
39 -> 43 ;
44 [label="CreditScore <= 514.5\ngini = 0.397\nsamples = 11\nvalue = [8, 3]\nclass = NotExited", fillcolor="#efb083"] ;
43 -> 44 ;
45 [label="gini = 0.0\nsamples = 8\nvalue = [8, 0]\nclass = NotExited", fillcolor="#e58139"] ;
44 -> 45 ;
46 [label="gini = 0.0\nsamples = 3\nvalue = [0, 3]\nclass = Exited", fillcolor="#399de5"] ;
44 -> 46 ;
47 [label="Tenure <= 6.5\ngini = 0.093\nsamples = 41\nvalue = [39, 2]\nclass = NotExited", fillcolor="#e68743"] ;
43 -> 47 ;
48 [label="gini = 0.0\nsamples = 28\nvalue = [28, 0]\nclass = NotExited", fillcolor="#e58139"] ;
47 -> 48 ;
49 [label="CreditScore <= 667.5\ngini = 0.26\nsamples = 13\nvalue = [11, 2]\nclass = NotExited", fillcolor="#ea985d"] ;
47 -> 49 ;
50 [label="CreditScore <= 619.5\ngini = 0.165\nsamples = 11\nvalue = [10, 1]\nclass = NotExited", fillcolor="#e88e4d"] ;
49 -> 50 ;
51 [label="CreditScore <= 591.0\ngini = 0.444\nsamples = 3\nvalue = [2, 1]\nclass = NotExited", fillcolor="#f2c09c"] ;
50 -> 51 ;
52 [label="gini = 0.0\nsamples = 2\nvalue = [2, 0]\nclass = NotExited", fillcolor="#e58139"] ;
51 -> 52 ;
53 [label="gini = 0.0\nsamples = 1\nvalue = [0, 1]\nclass = Exited", fillcolor="#399de5"] ;
51 -> 53 ;
54 [label="gini = 0.0\nsamples = 8\nvalue = [8, 0]\nclass = NotExited", fillcolor="#e58139"] ;
50 -> 54 ;
55 [label="CreditScore <= 670.0\ngini = 0.5\nsamples = 2\nvalue = [1, 1]\nclass = NotExited", fillcolor="#ffffff"] ;
49 -> 55 ;
56 [label="gini = 0.0\nsamples = 1\nvalue = [0, 1]\nclass = Exited", fillcolor="#399de5"] ;
55 -> 56 ;
57 [label="gini = 0.0\nsamples = 1\nvalue = [1, 0]\nclass = NotExited", fillcolor="#e58139"] ;
55 -> 57 ;
58 [label="CreditScore <= 698.0\ngini = 0.412\nsamples = 31\nvalue = [22, 9]\nclass = NotExited", fillcolor="#f0b58a"] ;
38 -> 58 ;
59 [label="gini = 0.0\nsamples = 4\nvalue = [0, 4]\nclass = Exited", fillcolor="#399de5"] ;
58 -> 59 ;
60 [label="EstimatedSalary <= 116198.066\ngini = 0.302\nsamples = 27\nvalue = [22, 5]\nclass = NotExited", fillcolor="#eb9e66"] ;
58 -> 60 ;
61 [label="EstimatedSalary <= 48237.014\ngini = 0.117\nsamples = 16\nvalue = [15, 1]\nclass = NotExited", fillcolor="#e78946"] ;
60 -> 61 ;
62 [label="CreditScore <= 760.5\ngini = 0.444\nsamples = 3\nvalue = [2, 1]\nclass = NotExited", fillcolor="#f2c09c"] ;
61 -> 62 ;
63 [label="gini = 0.0\nsamples = 1\nvalue = [0, 1]\nclass = Exited", fillcolor="#399de5"] ;
62 -> 63 ;
64 [label="gini = 0.0\nsamples = 2\nvalue = [2, 0]\nclass = NotExited", fillcolor="#e58139"] ;
62 -> 64 ;
65 [label="gini = 0.0\nsamples = 13\nvalue = [13, 0]\nclass = NotExited", fillcolor="#e58139"] ;
61 -> 65 ;
66 [label="EstimatedSalary <= 148271.141\ngini = 0.463\nsamples = 11\nvalue = [7, 4]\nclass = NotExited", fillcolor="#f4c9aa"] ;
60 -> 66 ;
67 [label="EstimatedSalary <= 126778.227\ngini = 0.32\nsamples = 5\nvalue = [1, 4]\nclass = Exited", fillcolor="#6ab6ec"] ;
66 -> 67 ;
68 [label="Age <= 36.0\ngini = 0.5\nsamples = 2\nvalue = [1, 1]\nclass = NotExited", fillcolor="#ffffff"] ;
67 -> 68 ;
69 [label="gini = 0.0\nsamples = 1\nvalue = [1, 0]\nclass = NotExited", fillcolor="#e58139"] ;
68 -> 69 ;
70 [label="gini = 0.0\nsamples = 1\nvalue = [0, 1]\nclass = Exited", fillcolor="#399de5"] ;
68 -> 70 ;
71 [label="gini = 0.0\nsamples = 3\nvalue = [0, 3]\nclass = Exited", fillcolor="#399de5"] ;
67 -> 71 ;
72 [label="gini = 0.0\nsamples = 6\nvalue = [6, 0]\nclass = NotExited", fillcolor="#e58139"] ;
66 -> 72 ;
73 [label="gini = 0.0\nsamples = 1\nvalue = [0, 1]\nclass = Exited", fillcolor="#399de5"] ;
37 -> 73 ;
74 [label="CreditScore <= 830.5\ngini = 0.229\nsamples = 220\nvalue = [191, 29]\nclass = NotExited", fillcolor="#e99457"] ;
6 -> 74 ;
75 [label="Balance <= 72594.559\ngini = 0.213\nsamples = 214\nvalue = [188, 26]\nclass = NotExited", fillcolor="#e99254"] ;
74 -> 75 ;
76 [label="CreditScore <= 415.0\ngini = 0.207\nsamples = 213\nvalue = [188, 25]\nclass = NotExited", fillcolor="#e89253"] ;
75 -> 76 ;
77 [label="gini = 0.0\nsamples = 1\nvalue = [0, 1]\nclass = Exited", fillcolor="#399de5"] ;
76 -> 77 ;
78 [label="Age <= 18.5\ngini = 0.201\nsamples = 212\nvalue = [188, 24]\nclass = NotExited", fillcolor="#e89152"] ;
76 -> 78 ;
79 [label="gini = 0.0\nsamples = 1\nvalue = [0, 1]\nclass = Exited", fillcolor="#399de5"] ;
78 -> 79 ;
80 [label="EstimatedSalary <= 174064.82\ngini = 0.194\nsamples = 211\nvalue = [188, 23]\nclass = NotExited", fillcolor="#e89051"] ;
78 -> 80 ;
81 [label="CreditScore <= 708.5\ngini = 0.168\nsamples = 194\nvalue = [176, 18]\nclass = NotExited", fillcolor="#e88e4d"] ;
80 -> 81 ;
82 [label="CreditScore <= 701.0\ngini = 0.215\nsamples = 147\nvalue = [129, 18]\nclass = NotExited", fillcolor="#e99355"] ;
81 -> 82 ;
83 [label="Age <= 32.5\ngini = 0.198\nsamples = 144\nvalue = [128, 16]\nclass = NotExited", fillcolor="#e89152"] ;
82 -> 83 ;
84 [label="Tenure <= 9.5\ngini = 0.1\nsamples = 57\nvalue = [54, 3]\nclass = NotExited", fillcolor="#e68844"] ;
83 -> 84 ;
85 [label="CreditScore <= 691.5\ngini = 0.07\nsamples = 55\nvalue = [53, 2]\nclass = NotExited", fillcolor="#e68640"] ;
84 -> 85 ;
86 [label="EstimatedSalary <= 60646.92\ngini = 0.037\nsamples = 53\nvalue = [52, 1]\nclass = NotExited", fillcolor="#e6833d"] ;
85 -> 86 ;
87 [label="EstimatedSalary <= 52260.266\ngini = 0.111\nsamples = 17\nvalue = [16, 1]\nclass = NotExited", fillcolor="#e78945"] ;
86 -> 87 ;
88 [label="gini = 0.0\nsamples = 16\nvalue = [16, 0]\nclass = NotExited", fillcolor="#e58139"] ;
87 -> 88 ;
89 [label="gini = 0.0\nsamples = 1\nvalue = [0, 1]\nclass = Exited", fillcolor="#399de5"] ;
87 -> 89 ;
90 [label="gini = 0.0\nsamples = 36\nvalue = [36, 0]\nclass = NotExited", fillcolor="#e58139"] ;
86 -> 90 ;
91 [label="EstimatedSalary <= 43819.756\ngini = 0.5\nsamples = 2\nvalue = [1, 1]\nclass = NotExited", fillcolor="#ffffff"] ;
85 -> 91 ;
92 [label="gini = 0.0\nsamples = 1\nvalue = [1, 0]\nclass = NotExited", fillcolor="#e58139"] ;
91 -> 92 ;
93 [label="gini = 0.0\nsamples = 1\nvalue = [0, 1]\nclass = Exited", fillcolor="#399de5"] ;
91 -> 93 ;
94 [label="HasCrCard <= 0.5\ngini = 0.5\nsamples = 2\nvalue = [1, 1]\nclass = NotExited", fillcolor="#ffffff"] ;
84 -> 94 ;
95 [label="gini = 0.0\nsamples = 1\nvalue = [1, 0]\nclass = NotExited", fillcolor="#e58139"] ;
94 -> 95 ;
96 [label="gini = 0.0\nsamples = 1\nvalue = [0, 1]\nclass = Exited", fillcolor="#399de5"] ;
94 -> 96 ;
97 [label="Balance <= 68836.145\ngini = 0.254\nsamples = 87\nvalue = [74, 13]\nclass = NotExited", fillcolor="#ea975c"] ;
83 -> 97 ;
98 [label="EstimatedSalary <= 153827.883\ngini = 0.24\nsamples = 86\nvalue = [74, 12]\nclass = NotExited", fillcolor="#e99559"] ;
97 -> 98 ;
99 [label="EstimatedSalary <= 148479.039\ngini = 0.272\nsamples = 74\nvalue = [62, 12]\nclass = NotExited", fillcolor="#ea995f"] ;
98 -> 99 ;
100 [label="Age <= 36.5\ngini = 0.256\nsamples = 73\nvalue = [62, 11]\nclass = NotExited", fillcolor="#ea975c"] ;
99 -> 100 ;
101 [label="Age <= 34.5\ngini = 0.355\nsamples = 39\nvalue = [30, 9]\nclass = NotExited", fillcolor="#eda774"] ;
100 -> 101 ;
102 [label="EstimatedSalary <= 102415.488\ngini = 0.219\nsamples = 24\nvalue = [21, 3]\nclass = NotExited", fillcolor="#e99355"] ;
101 -> 102 ;
103 [label="CreditScore <= 626.0\ngini = 0.1\nsamples = 19\nvalue = [18, 1]\nclass = NotExited", fillcolor="#e68844"] ;
102 -> 103 ;
104 [label="gini = 0.0\nsamples = 12\nvalue = [12, 0]\nclass = NotExited", fillcolor="#e58139"] ;
103 -> 104 ;
105 [label="CreditScore <= 636.5\ngini = 0.245\nsamples = 7\nvalue = [6, 1]\nclass = NotExited", fillcolor="#e9965a"] ;
103 -> 105 ;
106 [label="gini = 0.0\nsamples = 1\nvalue = [0, 1]\nclass = Exited", fillcolor="#399de5"] ;
105 -> 106 ;
107 [label="gini = 0.0\nsamples = 6\nvalue = [6, 0]\nclass = NotExited", fillcolor="#e58139"] ;
105 -> 107 ;
108 [label="EstimatedSalary <= 118466.953\ngini = 0.48\nsamples = 5\nvalue = [3, 2]\nclass = NotExited", fillcolor="#f6d5bd"] ;
102 -> 108 ;
109 [label="gini = 0.0\nsamples = 2\nvalue = [0, 2]\nclass = Exited", fillcolor="#399de5"] ;
108 -> 109 ;
110 [label="gini = 0.0\nsamples = 3\nvalue = [3, 0]\nclass = NotExited", fillcolor="#e58139"] ;
108 -> 110 ;
111 [label="HasCrCard <= 0.5\ngini = 0.48\nsamples = 15\nvalue = [9, 6]\nclass = NotExited", fillcolor="#f6d5bd"] ;
101 -> 111 ;
112 [label="Geography_Category1 <= 0.5\ngini = 0.278\nsamples = 6\nvalue = [5, 1]\nclass = NotExited", fillcolor="#ea9a61"] ;
111 -> 112 ;
113 [label="gini = 0.0\nsamples = 4\nvalue = [4, 0]\nclass = NotExited", fillcolor="#e58139"] ;
112 -> 113 ;
114 [label="Tenure <= 4.5\ngini = 0.5\nsamples = 2\nvalue = [1, 1]\nclass = NotExited", fillcolor="#ffffff"] ;
112 -> 114 ;
115 [label="gini = 0.0\nsamples = 1\nvalue = [0, 1]\nclass = Exited", fillcolor="#399de5"] ;
114 -> 115 ;
116 [label="gini = 0.0\nsamples = 1\nvalue = [1, 0]\nclass = NotExited", fillcolor="#e58139"] ;
114 -> 116 ;
117 [label="EstimatedSalary <= 23048.76\ngini = 0.494\nsamples = 9\nvalue = [4, 5]\nclass = Exited", fillcolor="#d7ebfa"] ;
111 -> 117 ;
118 [label="gini = 0.0\nsamples = 2\nvalue = [2, 0]\nclass = NotExited", fillcolor="#e58139"] ;
117 -> 118 ;
119 [label="Tenure <= 8.5\ngini = 0.408\nsamples = 7\nvalue = [2, 5]\nclass = Exited", fillcolor="#88c4ef"] ;
117 -> 119 ;
120 [label="gini = 0.0\nsamples = 4\nvalue = [0, 4]\nclass = Exited", fillcolor="#399de5"] ;
119 -> 120 ;
121 [label="EstimatedSalary <= 50185.881\ngini = 0.444\nsamples = 3\nvalue = [2, 1]\nclass = NotExited", fillcolor="#f2c09c"] ;
119 -> 121 ;
122 [label="gini = 0.0\nsamples = 1\nvalue = [0, 1]\nclass = Exited", fillcolor="#399de5"] ;
121 -> 122 ;
123 [label="gini = 0.0\nsamples = 2\nvalue = [2, 0]\nclass = NotExited", fillcolor="#e58139"] ;
121 -> 123 ;
124 [label="EstimatedSalary <= 13264.955\ngini = 0.111\nsamples = 34\nvalue = [32, 2]\nclass = NotExited", fillcolor="#e78945"] ;
100 -> 124 ;
125 [label="Tenure <= 3.5\ngini = 0.444\nsamples = 3\nvalue = [2, 1]\nclass = NotExited", fillcolor="#f2c09c"] ;
124 -> 125 ;
126 [label="gini = 0.0\nsamples = 1\nvalue = [0, 1]\nclass = Exited", fillcolor="#399de5"] ;
125 -> 126 ;
127 [label="gini = 0.0\nsamples = 2\nvalue = [2, 0]\nclass = NotExited", fillcolor="#e58139"] ;
125 -> 127 ;
128 [label="HasCrCard <= 0.5\ngini = 0.062\nsamples = 31\nvalue = [30, 1]\nclass = NotExited", fillcolor="#e68540"] ;
124 -> 128 ;
129 [label="EstimatedSalary <= 80472.277\ngini = 0.32\nsamples = 5\nvalue = [4, 1]\nclass = NotExited", fillcolor="#eca06a"] ;
128 -> 129 ;
130 [label="gini = 0.0\nsamples = 1\nvalue = [0, 1]\nclass = Exited", fillcolor="#399de5"] ;
129 -> 130 ;
131 [label="gini = 0.0\nsamples = 4\nvalue = [4, 0]\nclass = NotExited", fillcolor="#e58139"] ;
129 -> 131 ;
132 [label="gini = 0.0\nsamples = 26\nvalue = [26, 0]\nclass = NotExited", fillcolor="#e58139"] ;
128 -> 132 ;
133 [label="gini = 0.0\nsamples = 1\nvalue = [0, 1]\nclass = Exited", fillcolor="#399de5"] ;
99 -> 133 ;
134 [label="gini = 0.0\nsamples = 12\nvalue = [12, 0]\nclass = NotExited", fillcolor="#e58139"] ;
98 -> 134 ;
135 [label="gini = 0.0\nsamples = 1\nvalue = [0, 1]\nclass = Exited", fillcolor="#399de5"] ;
97 -> 135 ;
136 [label="Balance <= 71474.516\ngini = 0.444\nsamples = 3\nvalue = [1, 2]\nclass = Exited", fillcolor="#9ccef2"] ;
82 -> 136 ;
137 [label="gini = 0.0\nsamples = 2\nvalue = [0, 2]\nclass = Exited", fillcolor="#399de5"] ;
136 -> 137 ;
138 [label="gini = 0.0\nsamples = 1\nvalue = [1, 0]\nclass = NotExited", fillcolor="#e58139"] ;
136 -> 138 ;
139 [label="gini = 0.0\nsamples = 47\nvalue = [47, 0]\nclass = NotExited", fillcolor="#e58139"] ;
81 -> 139 ;
140 [label="Age <= 31.5\ngini = 0.415\nsamples = 17\nvalue = [12, 5]\nclass = NotExited", fillcolor="#f0b58b"] ;
80 -> 140 ;
141 [label="gini = 0.0\nsamples = 8\nvalue = [8, 0]\nclass = NotExited", fillcolor="#e58139"] ;
140 -> 141 ;
142 [label="EstimatedSalary <= 179187.883\ngini = 0.494\nsamples = 9\nvalue = [4, 5]\nclass = Exited", fillcolor="#d7ebfa"] ;
140 -> 142 ;
143 [label="gini = 0.0\nsamples = 3\nvalue = [0, 3]\nclass = Exited", fillcolor="#399de5"] ;
142 -> 143 ;
144 [label="Tenure <= 6.0\ngini = 0.444\nsamples = 6\nvalue = [4, 2]\nclass = NotExited", fillcolor="#f2c09c"] ;
142 -> 144 ;
145 [label="gini = 0.0\nsamples = 4\nvalue = [4, 0]\nclass = NotExited", fillcolor="#e58139"] ;
144 -> 145 ;
146 [label="gini = 0.0\nsamples = 2\nvalue = [0, 2]\nclass = Exited", fillcolor="#399de5"] ;
144 -> 146 ;
147 [label="gini = 0.0\nsamples = 1\nvalue = [0, 1]\nclass = Exited", fillcolor="#399de5"] ;
75 -> 147 ;
148 [label="Tenure <= 8.5\ngini = 0.5\nsamples = 6\nvalue = [3, 3]\nclass = NotExited", fillcolor="#ffffff"] ;
74 -> 148 ;
149 [label="CreditScore <= 837.0\ngini = 0.375\nsamples = 4\nvalue = [3, 1]\nclass = NotExited", fillcolor="#eeab7b"] ;
148 -> 149 ;
150 [label="gini = 0.0\nsamples = 1\nvalue = [0, 1]\nclass = Exited", fillcolor="#399de5"] ;
149 -> 150 ;
151 [label="gini = 0.0\nsamples = 3\nvalue = [3, 0]\nclass = NotExited", fillcolor="#e58139"] ;
149 -> 151 ;
152 [label="gini = 0.0\nsamples = 2\nvalue = [0, 2]\nclass = Exited", fillcolor="#399de5"] ;
148 -> 152 ;
153 [label="Balance <= 175375.531\ngini = 0.134\nsamples = 1149\nvalue = [1066, 83]\nclass = NotExited", fillcolor="#e78b48"] ;
5 -> 153 ;
154 [label="IsActiveMember <= 0.5\ngini = 0.123\nsamples = 1107\nvalue = [1034, 73]\nclass = NotExited", fillcolor="#e78a47"] ;
153 -> 154 ;
155 [label="CreditScore <= 414.0\ngini = 0.157\nsamples = 546\nvalue = [499, 47]\nclass = NotExited", fillcolor="#e78d4c"] ;
154 -> 155 ;
156 [label="gini = 0.0\nsamples = 1\nvalue = [0, 1]\nclass = Exited", fillcolor="#399de5"] ;
155 -> 156 ;
157 [label="Age <= 22.5\ngini = 0.155\nsamples = 545\nvalue = [499, 46]\nclass = NotExited", fillcolor="#e78d4b"] ;
155 -> 157 ;
158 [label="CreditScore <= 682.5\ngini = 0.346\nsamples = 18\nvalue = [14, 4]\nclass = NotExited", fillcolor="#eca572"] ;
157 -> 158 ;
159 [label="gini = 0.0\nsamples = 12\nvalue = [12, 0]\nclass = NotExited", fillcolor="#e58139"] ;
158 -> 159 ;
160 [label="Age <= 20.5\ngini = 0.444\nsamples = 6\nvalue = [2, 4]\nclass = Exited", fillcolor="#9ccef2"] ;
158 -> 160 ;
161 [label="gini = 0.0\nsamples = 2\nvalue = [2, 0]\nclass = NotExited", fillcolor="#e58139"] ;
160 -> 161 ;
162 [label="gini = 0.0\nsamples = 4\nvalue = [0, 4]\nclass = Exited", fillcolor="#399de5"] ;
160 -> 162 ;
163 [label="Balance <= 118431.258\ngini = 0.147\nsamples = 527\nvalue = [485, 42]\nclass = NotExited", fillcolor="#e78c4a"] ;
157 -> 163 ;
164 [label="CreditScore <= 446.0\ngini = 0.103\nsamples = 239\nvalue = [226, 13]\nclass = NotExited", fillcolor="#e68844"] ;
163 -> 164 ;
165 [label="Age <= 31.5\ngini = 0.48\nsamples = 5\nvalue = [3, 2]\nclass = NotExited", fillcolor="#f6d5bd"] ;
164 -> 165 ;
166 [label="gini = 0.0\nsamples = 3\nvalue = [3, 0]\nclass = NotExited", fillcolor="#e58139"] ;
165 -> 166 ;
167 [label="gini = 0.0\nsamples = 2\nvalue = [0, 2]\nclass = Exited", fillcolor="#399de5"] ;
165 -> 167 ;
168 [label="HasCrCard <= 0.5\ngini = 0.09\nsamples = 234\nvalue = [223, 11]\nclass = NotExited", fillcolor="#e68743"] ;
164 -> 168 ;
169 [label="Tenure <= 9.5\ngini = 0.164\nsamples = 89\nvalue = [81, 8]\nclass = NotExited", fillcolor="#e88d4d"] ;
168 -> 169 ;
170 [label="EstimatedSalary <= 194291.508\ngini = 0.148\nsamples = 87\nvalue = [80, 7]\nclass = NotExited", fillcolor="#e78c4a"] ;
169 -> 170 ;
171 [label="Balance <= 112619.531\ngini = 0.131\nsamples = 85\nvalue = [79, 6]\nclass = NotExited", fillcolor="#e78b48"] ;
170 -> 171 ;
172 [label="Balance <= 86720.223\ngini = 0.088\nsamples = 65\nvalue = [62, 3]\nclass = NotExited", fillcolor="#e68743"] ;
171 -> 172 ;
173 [label="Balance <= 86611.871\ngini = 0.227\nsamples = 23\nvalue = [20, 3]\nclass = NotExited", fillcolor="#e99457"] ;
172 -> 173 ;
174 [label="CreditScore <= 507.5\ngini = 0.165\nsamples = 22\nvalue = [20, 2]\nclass = NotExited", fillcolor="#e88e4d"] ;
173 -> 174 ;
175 [label="gini = 0.0\nsamples = 1\nvalue = [0, 1]\nclass = Exited", fillcolor="#399de5"] ;
174 -> 175 ;
176 [label="EstimatedSalary <= 170832.07\ngini = 0.091\nsamples = 21\nvalue = [20, 1]\nclass = NotExited", fillcolor="#e68743"] ;
174 -> 176 ;
177 [label="gini = 0.0\nsamples = 18\nvalue = [18, 0]\nclass = NotExited", fillcolor="#e58139"] ;
176 -> 177 ;
178 [label="EstimatedSalary <= 176789.445\ngini = 0.444\nsamples = 3\nvalue = [2, 1]\nclass = NotExited", fillcolor="#f2c09c"] ;
176 -> 178 ;
179 [label="gini = 0.0\nsamples = 1\nvalue = [0, 1]\nclass = Exited", fillcolor="#399de5"] ;
178 -> 179 ;
180 [label="gini = 0.0\nsamples = 2\nvalue = [2, 0]\nclass = NotExited", fillcolor="#e58139"] ;
178 -> 180 ;
181 [label="gini = 0.0\nsamples = 1\nvalue = [0, 1]\nclass = Exited", fillcolor="#399de5"] ;
173 -> 181 ;
182 [label="gini = 0.0\nsamples = 42\nvalue = [42, 0]\nclass = NotExited", fillcolor="#e58139"] ;
172 -> 182 ;
183 [label="Balance <= 112982.688\ngini = 0.255\nsamples = 20\nvalue = [17, 3]\nclass = NotExited", fillcolor="#ea975c"] ;
171 -> 183 ;
184 [label="gini = 0.0\nsamples = 2\nvalue = [0, 2]\nclass = Exited", fillcolor="#399de5"] ;
183 -> 184 ;
185 [label="Tenure <= 1.5\ngini = 0.105\nsamples = 18\nvalue = [17, 1]\nclass = NotExited", fillcolor="#e78845"] ;
183 -> 185 ;
186 [label="Balance <= 116815.812\ngini = 0.375\nsamples = 4\nvalue = [3, 1]\nclass = NotExited", fillcolor="#eeab7b"] ;
185 -> 186 ;
187 [label="gini = 0.0\nsamples = 3\nvalue = [3, 0]\nclass = NotExited", fillcolor="#e58139"] ;
186 -> 187 ;
188 [label="gini = 0.0\nsamples = 1\nvalue = [0, 1]\nclass = Exited", fillcolor="#399de5"] ;
186 -> 188 ;
189 [label="gini = 0.0\nsamples = 14\nvalue = [14, 0]\nclass = NotExited", fillcolor="#e58139"] ;
185 -> 189 ;
190 [label="Geography_Category1 <= 0.5\ngini = 0.5\nsamples = 2\nvalue = [1, 1]\nclass = NotExited", fillcolor="#ffffff"] ;
170 -> 190 ;
191 [label="gini = 0.0\nsamples = 1\nvalue = [0, 1]\nclass = Exited", fillcolor="#399de5"] ;
190 -> 191 ;
192 [label="gini = 0.0\nsamples = 1\nvalue = [1, 0]\nclass = NotExited", fillcolor="#e58139"] ;
190 -> 192 ;
193 [label="Age <= 36.5\ngini = 0.5\nsamples = 2\nvalue = [1, 1]\nclass = NotExited", fillcolor="#ffffff"] ;
169 -> 193 ;
194 [label="gini = 0.0\nsamples = 1\nvalue = [1, 0]\nclass = NotExited", fillcolor="#e58139"] ;
193 -> 194 ;
195 [label="gini = 0.0\nsamples = 1\nvalue = [0, 1]\nclass = Exited", fillcolor="#399de5"] ;
193 -> 195 ;
196 [label="Age <= 36.5\ngini = 0.041\nsamples = 145\nvalue = [142, 3]\nclass = NotExited", fillcolor="#e6843d"] ;
168 -> 196 ;
197 [label="gini = 0.0\nsamples = 113\nvalue = [113, 0]\nclass = NotExited", fillcolor="#e58139"] ;
196 -> 197 ;
198 [label="CreditScore <= 521.0\ngini = 0.17\nsamples = 32\nvalue = [29, 3]\nclass = NotExited", fillcolor="#e88e4d"] ;
196 -> 198 ;
199 [label="Tenure <= 3.5\ngini = 0.5\nsamples = 2\nvalue = [1, 1]\nclass = NotExited", fillcolor="#ffffff"] ;
198 -> 199 ;
200 [label="gini = 0.0\nsamples = 1\nvalue = [1, 0]\nclass = NotExited", fillcolor="#e58139"] ;
199 -> 200 ;
201 [label="gini = 0.0\nsamples = 1\nvalue = [0, 1]\nclass = Exited", fillcolor="#399de5"] ;
199 -> 201 ;
202 [label="Balance <= 102614.078\ngini = 0.124\nsamples = 30\nvalue = [28, 2]\nclass = NotExited", fillcolor="#e78a47"] ;
198 -> 202 ;
203 [label="Balance <= 96566.336\ngini = 0.298\nsamples = 11\nvalue = [9, 2]\nclass = NotExited", fillcolor="#eb9d65"] ;
202 -> 203 ;
204 [label="gini = 0.0\nsamples = 8\nvalue = [8, 0]\nclass = NotExited", fillcolor="#e58139"] ;
203 -> 204 ;
205 [label="EstimatedSalary <= 24547.71\ngini = 0.444\nsamples = 3\nvalue = [1, 2]\nclass = Exited", fillcolor="#9ccef2"] ;
203 -> 205 ;
206 [label="gini = 0.0\nsamples = 1\nvalue = [1, 0]\nclass = NotExited", fillcolor="#e58139"] ;
205 -> 206 ;
207 [label="gini = 0.0\nsamples = 2\nvalue = [0, 2]\nclass = Exited", fillcolor="#399de5"] ;
205 -> 207 ;
208 [label="gini = 0.0\nsamples = 19\nvalue = [19, 0]\nclass = NotExited", fillcolor="#e58139"] ;
202 -> 208 ;
209 [label="Balance <= 118520.332\ngini = 0.181\nsamples = 288\nvalue = [259, 29]\nclass = NotExited", fillcolor="#e88f4f"] ;
163 -> 209 ;
210 [label="gini = 0.0\nsamples = 1\nvalue = [0, 1]\nclass = Exited", fillcolor="#399de5"] ;
209 -> 210 ;
211 [label="EstimatedSalary <= 91290.629\ngini = 0.176\nsamples = 287\nvalue = [259, 28]\nclass = NotExited", fillcolor="#e88f4e"] ;
209 -> 211 ;
212 [label="EstimatedSalary <= 90702.363\ngini = 0.233\nsamples = 141\nvalue = [122, 19]\nclass = NotExited", fillcolor="#e99558"] ;
211 -> 212 ;
213 [label="CreditScore <= 804.5\ngini = 0.224\nsamples = 140\nvalue = [122, 18]\nclass = NotExited", fillcolor="#e99456"] ;
212 -> 213 ;
214 [label="CreditScore <= 713.5\ngini = 0.201\nsamples = 132\nvalue = [117, 15]\nclass = NotExited", fillcolor="#e89152"] ;
213 -> 214 ;
215 [label="CreditScore <= 614.5\ngini = 0.245\nsamples = 105\nvalue = [90, 15]\nclass = NotExited", fillcolor="#e9965a"] ;
214 -> 215 ;
216 [label="EstimatedSalary <= 2814.46\ngini = 0.107\nsamples = 53\nvalue = [50, 3]\nclass = NotExited", fillcolor="#e78945"] ;
215 -> 216 ;
217 [label="gini = 0.0\nsamples = 1\nvalue = [0, 1]\nclass = Exited", fillcolor="#399de5"] ;
216 -> 217 ;
218 [label="Geography_Category1 <= 0.5\ngini = 0.074\nsamples = 52\nvalue = [50, 2]\nclass = NotExited", fillcolor="#e68641"] ;
216 -> 218 ;
219 [label="gini = 0.0\nsamples = 37\nvalue = [37, 0]\nclass = NotExited", fillcolor="#e58139"] ;
218 -> 219 ;
220 [label="Age <= 37.5\ngini = 0.231\nsamples = 15\nvalue = [13, 2]\nclass = NotExited", fillcolor="#e99457"] ;
218 -> 220 ;
221 [label="Balance <= 124154.879\ngini = 0.142\nsamples = 13\nvalue = [12, 1]\nclass = NotExited", fillcolor="#e78c49"] ;
220 -> 221 ;
222 [label="HasCrCard <= 0.5\ngini = 0.5\nsamples = 2\nvalue = [1, 1]\nclass = NotExited", fillcolor="#ffffff"] ;
221 -> 222 ;
223 [label="gini = 0.0\nsamples = 1\nvalue = [0, 1]\nclass = Exited", fillcolor="#399de5"] ;
222 -> 223 ;
224 [label="gini = 0.0\nsamples = 1\nvalue = [1, 0]\nclass = NotExited", fillcolor="#e58139"] ;
222 -> 224 ;
225 [label="gini = 0.0\nsamples = 11\nvalue = [11, 0]\nclass = NotExited", fillcolor="#e58139"] ;
221 -> 225 ;
226 [label="Balance <= 134161.051\ngini = 0.5\nsamples = 2\nvalue = [1, 1]\nclass = NotExited", fillcolor="#ffffff"] ;
220 -> 226 ;
227 [label="gini = 0.0\nsamples = 1\nvalue = [1, 0]\nclass = NotExited", fillcolor="#e58139"] ;
226 -> 227 ;
228 [label="gini = 0.0\nsamples = 1\nvalue = [0, 1]\nclass = Exited", fillcolor="#399de5"] ;
226 -> 228 ;
229 [label="CreditScore <= 632.5\ngini = 0.355\nsamples = 52\nvalue = [40, 12]\nclass = NotExited", fillcolor="#eda774"] ;
215 -> 229 ;
230 [label="CreditScore <= 624.5\ngini = 0.49\nsamples = 7\nvalue = [3, 4]\nclass = Exited", fillcolor="#cee6f8"] ;
229 -> 230 ;
231 [label="Age <= 33.5\ngini = 0.375\nsamples = 4\nvalue = [3, 1]\nclass = NotExited", fillcolor="#eeab7b"] ;
230 -> 231 ;
232 [label="gini = 0.0\nsamples = 1\nvalue = [0, 1]\nclass = Exited", fillcolor="#399de5"] ;
231 -> 232 ;
233 [label="gini = 0.0\nsamples = 3\nvalue = [3, 0]\nclass = NotExited", fillcolor="#e58139"] ;
231 -> 233 ;
234 [label="gini = 0.0\nsamples = 3\nvalue = [0, 3]\nclass = Exited", fillcolor="#399de5"] ;
230 -> 234 ;
235 [label="Balance <= 124298.309\ngini = 0.292\nsamples = 45\nvalue = [37, 8]\nclass = NotExited", fillcolor="#eb9c64"] ;
229 -> 235 ;
236 [label="Tenure <= 4.5\ngini = 0.48\nsamples = 5\nvalue = [2, 3]\nclass = Exited", fillcolor="#bddef6"] ;
235 -> 236 ;
237 [label="gini = 0.0\nsamples = 2\nvalue = [2, 0]\nclass = NotExited", fillcolor="#e58139"] ;
236 -> 237 ;
238 [label="gini = 0.0\nsamples = 3\nvalue = [0, 3]\nclass = Exited", fillcolor="#399de5"] ;
236 -> 238 ;
239 [label="CreditScore <= 711.5\ngini = 0.219\nsamples = 40\nvalue = [35, 5]\nclass = NotExited", fillcolor="#e99355"] ;
235 -> 239 ;
240 [label="Tenure <= 2.0\ngini = 0.184\nsamples = 39\nvalue = [35, 4]\nclass = NotExited", fillcolor="#e88f50"] ;
239 -> 240 ;
241 [label="CreditScore <= 662.0\ngini = 0.375\nsamples = 8\nvalue = [6, 2]\nclass = NotExited", fillcolor="#eeab7b"] ;
240 -> 241 ;
242 [label="gini = 0.0\nsamples = 4\nvalue = [4, 0]\nclass = NotExited", fillcolor="#e58139"] ;
241 -> 242 ;
243 [label="EstimatedSalary <= 27250.689\ngini = 0.5\nsamples = 4\nvalue = [2, 2]\nclass = NotExited", fillcolor="#ffffff"] ;
241 -> 243 ;
244 [label="gini = 0.0\nsamples = 2\nvalue = [2, 0]\nclass = NotExited", fillcolor="#e58139"] ;
243 -> 244 ;
245 [label="gini = 0.0\nsamples = 2\nvalue = [0, 2]\nclass = Exited", fillcolor="#399de5"] ;
243 -> 245 ;
246 [label="Balance <= 130400.414\ngini = 0.121\nsamples = 31\nvalue = [29, 2]\nclass = NotExited", fillcolor="#e78a47"] ;
240 -> 246 ;
247 [label="Balance <= 129437.441\ngini = 0.375\nsamples = 4\nvalue = [3, 1]\nclass = NotExited", fillcolor="#eeab7b"] ;
246 -> 247 ;
248 [label="gini = 0.0\nsamples = 3\nvalue = [3, 0]\nclass = NotExited", fillcolor="#e58139"] ;
247 -> 248 ;
249 [label="gini = 0.0\nsamples = 1\nvalue = [0, 1]\nclass = Exited", fillcolor="#399de5"] ;
247 -> 249 ;
250 [label="CreditScore <= 642.0\ngini = 0.071\nsamples = 27\nvalue = [26, 1]\nclass = NotExited", fillcolor="#e68641"] ;
246 -> 250 ;
251 [label="EstimatedSalary <= 28068.225\ngini = 0.278\nsamples = 6\nvalue = [5, 1]\nclass = NotExited", fillcolor="#ea9a61"] ;
250 -> 251 ;
252 [label="CreditScore <= 636.5\ngini = 0.5\nsamples = 2\nvalue = [1, 1]\nclass = NotExited", fillcolor="#ffffff"] ;
251 -> 252 ;
253 [label="gini = 0.0\nsamples = 1\nvalue = [1, 0]\nclass = NotExited", fillcolor="#e58139"] ;
252 -> 253 ;
254 [label="gini = 0.0\nsamples = 1\nvalue = [0, 1]\nclass = Exited", fillcolor="#399de5"] ;
252 -> 254 ;
255 [label="gini = 0.0\nsamples = 4\nvalue = [4, 0]\nclass = NotExited", fillcolor="#e58139"] ;
251 -> 255 ;
256 [label="gini = 0.0\nsamples = 21\nvalue = [21, 0]\nclass = NotExited", fillcolor="#e58139"] ;
250 -> 256 ;
257 [label="gini = 0.0\nsamples = 1\nvalue = [0, 1]\nclass = Exited", fillcolor="#399de5"] ;
239 -> 257 ;
258 [label="gini = 0.0\nsamples = 27\nvalue = [27, 0]\nclass = NotExited", fillcolor="#e58139"] ;
214 -> 258 ;
259 [label="Balance <= 142772.586\ngini = 0.469\nsamples = 8\nvalue = [5, 3]\nclass = NotExited", fillcolor="#f5cdb0"] ;
213 -> 259 ;
260 [label="gini = 0.0\nsamples = 4\nvalue = [4, 0]\nclass = NotExited", fillcolor="#e58139"] ;
259 -> 260 ;
261 [label="Balance <= 165693.773\ngini = 0.375\nsamples = 4\nvalue = [1, 3]\nclass = Exited", fillcolor="#7bbeee"] ;
259 -> 261 ;
262 [label="gini = 0.0\nsamples = 3\nvalue = [0, 3]\nclass = Exited", fillcolor="#399de5"] ;
261 -> 262 ;
263 [label="gini = 0.0\nsamples = 1\nvalue = [1, 0]\nclass = NotExited", fillcolor="#e58139"] ;
261 -> 263 ;
264 [label="gini = 0.0\nsamples = 1\nvalue = [0, 1]\nclass = Exited", fillcolor="#399de5"] ;
212 -> 264 ;
265 [label="EstimatedSalary <= 152207.82\ngini = 0.116\nsamples = 146\nvalue = [137, 9]\nclass = NotExited", fillcolor="#e78946"] ;
211 -> 265 ;
266 [label="Tenure <= 0.5\ngini = 0.023\nsamples = 86\nvalue = [85, 1]\nclass = NotExited", fillcolor="#e5823b"] ;
265 -> 266 ;
267 [label="CreditScore <= 576.5\ngini = 0.375\nsamples = 4\nvalue = [3, 1]\nclass = NotExited", fillcolor="#eeab7b"] ;
266 -> 267 ;
268 [label="gini = 0.0\nsamples = 1\nvalue = [0, 1]\nclass = Exited", fillcolor="#399de5"] ;
267 -> 268 ;
269 [label="gini = 0.0\nsamples = 3\nvalue = [3, 0]\nclass = NotExited", fillcolor="#e58139"] ;
267 -> 269 ;
270 [label="gini = 0.0\nsamples = 82\nvalue = [82, 0]\nclass = NotExited", fillcolor="#e58139"] ;
266 -> 270 ;
271 [label="Age <= 38.5\ngini = 0.231\nsamples = 60\nvalue = [52, 8]\nclass = NotExited", fillcolor="#e99457"] ;
265 -> 271 ;
272 [label="Balance <= 119439.516\ngini = 0.188\nsamples = 57\nvalue = [51, 6]\nclass = NotExited", fillcolor="#e89050"] ;
271 -> 272 ;
273 [label="gini = 0.0\nsamples = 1\nvalue = [0, 1]\nclass = Exited", fillcolor="#399de5"] ;
272 -> 273 ;
274 [label="EstimatedSalary <= 153154.203\ngini = 0.163\nsamples = 56\nvalue = [51, 5]\nclass = NotExited", fillcolor="#e88d4c"] ;
272 -> 274 ;
275 [label="gini = 0.0\nsamples = 1\nvalue = [0, 1]\nclass = Exited", fillcolor="#399de5"] ;
274 -> 275 ;
276 [label="Balance <= 171136.609\ngini = 0.135\nsamples = 55\nvalue = [51, 4]\nclass = NotExited", fillcolor="#e78b49"] ;
274 -> 276 ;
277 [label="Balance <= 126654.445\ngini = 0.107\nsamples = 53\nvalue = [50, 3]\nclass = NotExited", fillcolor="#e78945"] ;
276 -> 277 ;
278 [label="Balance <= 125936.047\ngini = 0.337\nsamples = 14\nvalue = [11, 3]\nclass = NotExited", fillcolor="#eca36f"] ;
277 -> 278 ;
279 [label="Tenure <= 8.5\ngini = 0.153\nsamples = 12\nvalue = [11, 1]\nclass = NotExited", fillcolor="#e78c4b"] ;
278 -> 279 ;
280 [label="gini = 0.0\nsamples = 10\nvalue = [10, 0]\nclass = NotExited", fillcolor="#e58139"] ;
279 -> 280 ;
281 [label="Age <= 33.0\ngini = 0.5\nsamples = 2\nvalue = [1, 1]\nclass = NotExited", fillcolor="#ffffff"] ;
279 -> 281 ;
282 [label="gini = 0.0\nsamples = 1\nvalue = [0, 1]\nclass = Exited", fillcolor="#399de5"] ;
281 -> 282 ;
283 [label="gini = 0.0\nsamples = 1\nvalue = [1, 0]\nclass = NotExited", fillcolor="#e58139"] ;
281 -> 283 ;
284 [label="gini = 0.0\nsamples = 2\nvalue = [0, 2]\nclass = Exited", fillcolor="#399de5"] ;
278 -> 284 ;
285 [label="gini = 0.0\nsamples = 39\nvalue = [39, 0]\nclass = NotExited", fillcolor="#e58139"] ;
277 -> 285 ;
286 [label="EstimatedSalary <= 187567.5\ngini = 0.5\nsamples = 2\nvalue = [1, 1]\nclass = NotExited", fillcolor="#ffffff"] ;
276 -> 286 ;
287 [label="gini = 0.0\nsamples = 1\nvalue = [1, 0]\nclass = NotExited", fillcolor="#e58139"] ;
286 -> 287 ;
288 [label="gini = 0.0\nsamples = 1\nvalue = [0, 1]\nclass = Exited", fillcolor="#399de5"] ;
286 -> 288 ;
289 [label="EstimatedSalary <= 178053.086\ngini = 0.444\nsamples = 3\nvalue = [1, 2]\nclass = Exited", fillcolor="#9ccef2"] ;
271 -> 289 ;
290 [label="gini = 0.0\nsamples = 2\nvalue = [0, 2]\nclass = Exited", fillcolor="#399de5"] ;
289 -> 290 ;
291 [label="gini = 0.0\nsamples = 1\nvalue = [1, 0]\nclass = NotExited", fillcolor="#e58139"] ;
289 -> 291 ;
292 [label="EstimatedSalary <= 162381.383\ngini = 0.088\nsamples = 561\nvalue = [535, 26]\nclass = NotExited", fillcolor="#e68743"] ;
154 -> 292 ;
293 [label="EstimatedSalary <= 1907.495\ngini = 0.07\nsamples = 465\nvalue = [448, 17]\nclass = NotExited", fillcolor="#e68641"] ;
292 -> 293 ;
294 [label="CreditScore <= 726.5\ngini = 0.444\nsamples = 3\nvalue = [2, 1]\nclass = NotExited", fillcolor="#f2c09c"] ;
293 -> 294 ;
295 [label="gini = 0.0\nsamples = 1\nvalue = [0, 1]\nclass = Exited", fillcolor="#399de5"] ;
294 -> 295 ;
296 [label="gini = 0.0\nsamples = 2\nvalue = [2, 0]\nclass = NotExited", fillcolor="#e58139"] ;
294 -> 296 ;
297 [label="Age <= 37.5\ngini = 0.067\nsamples = 462\nvalue = [446, 16]\nclass = NotExited", fillcolor="#e68640"] ;
293 -> 297 ;
298 [label="Balance <= 108435.422\ngini = 0.046\nsamples = 382\nvalue = [373, 9]\nclass = NotExited", fillcolor="#e6843e"] ;
297 -> 298 ;
299 [label="gini = 0.0\nsamples = 132\nvalue = [132, 0]\nclass = NotExited", fillcolor="#e58139"] ;
298 -> 299 ;
300 [label="Balance <= 108509.266\ngini = 0.069\nsamples = 250\nvalue = [241, 9]\nclass = NotExited", fillcolor="#e68640"] ;
298 -> 300 ;
301 [label="gini = 0.0\nsamples = 1\nvalue = [0, 1]\nclass = Exited", fillcolor="#399de5"] ;
300 -> 301 ;
302 [label="Gender <= 0.5\ngini = 0.062\nsamples = 249\nvalue = [241, 8]\nclass = NotExited", fillcolor="#e68540"] ;
300 -> 302 ;
303 [label="EstimatedSalary <= 130719.316\ngini = 0.117\nsamples = 112\nvalue = [105, 7]\nclass = NotExited", fillcolor="#e78946"] ;
302 -> 303 ;
304 [label="Tenure <= 9.5\ngini = 0.067\nsamples = 86\nvalue = [83, 3]\nclass = NotExited", fillcolor="#e68640"] ;
303 -> 304 ;
305 [label="EstimatedSalary <= 48855.314\ngini = 0.048\nsamples = 82\nvalue = [80, 2]\nclass = NotExited", fillcolor="#e6843e"] ;
304 -> 305 ;
306 [label="EstimatedSalary <= 48461.369\ngini = 0.124\nsamples = 30\nvalue = [28, 2]\nclass = NotExited", fillcolor="#e78a47"] ;
305 -> 306 ;
307 [label="EstimatedSalary <= 44385.689\ngini = 0.067\nsamples = 29\nvalue = [28, 1]\nclass = NotExited", fillcolor="#e68640"] ;
306 -> 307 ;
308 [label="gini = 0.0\nsamples = 24\nvalue = [24, 0]\nclass = NotExited", fillcolor="#e58139"] ;
307 -> 308 ;
309 [label="EstimatedSalary <= 44833.225\ngini = 0.32\nsamples = 5\nvalue = [4, 1]\nclass = NotExited", fillcolor="#eca06a"] ;
307 -> 309 ;
310 [label="gini = 0.0\nsamples = 1\nvalue = [0, 1]\nclass = Exited", fillcolor="#399de5"] ;
309 -> 310 ;
311 [label="gini = 0.0\nsamples = 4\nvalue = [4, 0]\nclass = NotExited", fillcolor="#e58139"] ;
309 -> 311 ;
312 [label="gini = 0.0\nsamples = 1\nvalue = [0, 1]\nclass = Exited", fillcolor="#399de5"] ;
306 -> 312 ;
313 [label="gini = 0.0\nsamples = 52\nvalue = [52, 0]\nclass = NotExited", fillcolor="#e58139"] ;
305 -> 313 ;
314 [label="Age <= 35.0\ngini = 0.375\nsamples = 4\nvalue = [3, 1]\nclass = NotExited", fillcolor="#eeab7b"] ;
304 -> 314 ;
315 [label="gini = 0.0\nsamples = 3\nvalue = [3, 0]\nclass = NotExited", fillcolor="#e58139"] ;
314 -> 315 ;
316 [label="gini = 0.0\nsamples = 1\nvalue = [0, 1]\nclass = Exited", fillcolor="#399de5"] ;
314 -> 316 ;
317 [label="EstimatedSalary <= 131546.539\ngini = 0.26\nsamples = 26\nvalue = [22, 4]\nclass = NotExited", fillcolor="#ea985d"] ;
303 -> 317 ;
318 [label="gini = 0.0\nsamples = 1\nvalue = [0, 1]\nclass = Exited", fillcolor="#399de5"] ;
317 -> 318 ;
319 [label="Balance <= 113183.848\ngini = 0.211\nsamples = 25\nvalue = [22, 3]\nclass = NotExited", fillcolor="#e99254"] ;
317 -> 319 ;
320 [label="gini = 0.0\nsamples = 1\nvalue = [0, 1]\nclass = Exited", fillcolor="#399de5"] ;
319 -> 320 ;
321 [label="Balance <= 156283.992\ngini = 0.153\nsamples = 24\nvalue = [22, 2]\nclass = NotExited", fillcolor="#e78c4b"] ;
319 -> 321 ;
322 [label="Tenure <= 7.5\ngini = 0.091\nsamples = 21\nvalue = [20, 1]\nclass = NotExited", fillcolor="#e68743"] ;
321 -> 322 ;
323 [label="gini = 0.0\nsamples = 17\nvalue = [17, 0]\nclass = NotExited", fillcolor="#e58139"] ;
322 -> 323 ;
324 [label="Age <= 28.0\ngini = 0.375\nsamples = 4\nvalue = [3, 1]\nclass = NotExited", fillcolor="#eeab7b"] ;
322 -> 324 ;
325 [label="gini = 0.0\nsamples = 1\nvalue = [0, 1]\nclass = Exited", fillcolor="#399de5"] ;
324 -> 325 ;
326 [label="gini = 0.0\nsamples = 3\nvalue = [3, 0]\nclass = NotExited", fillcolor="#e58139"] ;
324 -> 326 ;
327 [label="Age <= 34.5\ngini = 0.444\nsamples = 3\nvalue = [2, 1]\nclass = NotExited", fillcolor="#f2c09c"] ;
321 -> 327 ;
328 [label="gini = 0.0\nsamples = 2\nvalue = [2, 0]\nclass = NotExited", fillcolor="#e58139"] ;
327 -> 328 ;
329 [label="gini = 0.0\nsamples = 1\nvalue = [0, 1]\nclass = Exited", fillcolor="#399de5"] ;
327 -> 329 ;
330 [label="EstimatedSalary <= 21119.625\ngini = 0.014\nsamples = 137\nvalue = [136, 1]\nclass = NotExited", fillcolor="#e5823a"] ;
302 -> 330 ;
331 [label="EstimatedSalary <= 20220.275\ngini = 0.105\nsamples = 18\nvalue = [17, 1]\nclass = NotExited", fillcolor="#e78845"] ;
330 -> 331 ;
332 [label="gini = 0.0\nsamples = 17\nvalue = [17, 0]\nclass = NotExited", fillcolor="#e58139"] ;
331 -> 332 ;
333 [label="gini = 0.0\nsamples = 1\nvalue = [0, 1]\nclass = Exited", fillcolor="#399de5"] ;
331 -> 333 ;
334 [label="gini = 0.0\nsamples = 119\nvalue = [119, 0]\nclass = NotExited", fillcolor="#e58139"] ;
330 -> 334 ;
335 [label="Balance <= 75207.391\ngini = 0.16\nsamples = 80\nvalue = [73, 7]\nclass = NotExited", fillcolor="#e78d4c"] ;
297 -> 335 ;
336 [label="gini = 0.0\nsamples = 1\nvalue = [0, 1]\nclass = Exited", fillcolor="#399de5"] ;
335 -> 336 ;
337 [label="EstimatedSalary <= 5879.765\ngini = 0.14\nsamples = 79\nvalue = [73, 6]\nclass = NotExited", fillcolor="#e78b49"] ;
335 -> 337 ;
338 [label="gini = 0.0\nsamples = 1\nvalue = [0, 1]\nclass = Exited", fillcolor="#399de5"] ;
337 -> 338 ;
339 [label="EstimatedSalary <= 74407.051\ngini = 0.12\nsamples = 78\nvalue = [73, 5]\nclass = NotExited", fillcolor="#e78a47"] ;
337 -> 339 ;
340 [label="EstimatedSalary <= 58618.545\ngini = 0.231\nsamples = 30\nvalue = [26, 4]\nclass = NotExited", fillcolor="#e99457"] ;
339 -> 340 ;
341 [label="CreditScore <= 573.0\ngini = 0.08\nsamples = 24\nvalue = [23, 1]\nclass = NotExited", fillcolor="#e68642"] ;
340 -> 341 ;
342 [label="EstimatedSalary <= 22531.229\ngini = 0.5\nsamples = 2\nvalue = [1, 1]\nclass = NotExited", fillcolor="#ffffff"] ;
341 -> 342 ;
343 [label="gini = 0.0\nsamples = 1\nvalue = [0, 1]\nclass = Exited", fillcolor="#399de5"] ;
342 -> 343 ;
344 [label="gini = 0.0\nsamples = 1\nvalue = [1, 0]\nclass = NotExited", fillcolor="#e58139"] ;
342 -> 344 ;
345 [label="gini = 0.0\nsamples = 22\nvalue = [22, 0]\nclass = NotExited", fillcolor="#e58139"] ;
341 -> 345 ;
346 [label="Balance <= 116516.074\ngini = 0.5\nsamples = 6\nvalue = [3, 3]\nclass = NotExited", fillcolor="#ffffff"] ;
340 -> 346 ;
347 [label="gini = 0.0\nsamples = 2\nvalue = [2, 0]\nclass = NotExited", fillcolor="#e58139"] ;
346 -> 347 ;
348 [label="Tenure <= 1.5\ngini = 0.375\nsamples = 4\nvalue = [1, 3]\nclass = Exited", fillcolor="#7bbeee"] ;
346 -> 348 ;
349 [label="gini = 0.0\nsamples = 1\nvalue = [1, 0]\nclass = NotExited", fillcolor="#e58139"] ;
348 -> 349 ;
350 [label="gini = 0.0\nsamples = 3\nvalue = [0, 3]\nclass = Exited", fillcolor="#399de5"] ;
348 -> 350 ;
351 [label="CreditScore <= 525.0\ngini = 0.041\nsamples = 48\nvalue = [47, 1]\nclass = NotExited", fillcolor="#e6843d"] ;
339 -> 351 ;
352 [label="CreditScore <= 520.0\ngini = 0.245\nsamples = 7\nvalue = [6, 1]\nclass = NotExited", fillcolor="#e9965a"] ;
351 -> 352 ;
353 [label="gini = 0.0\nsamples = 6\nvalue = [6, 0]\nclass = NotExited", fillcolor="#e58139"] ;
352 -> 353 ;
354 [label="gini = 0.0\nsamples = 1\nvalue = [0, 1]\nclass = Exited", fillcolor="#399de5"] ;
352 -> 354 ;
355 [label="gini = 0.0\nsamples = 41\nvalue = [41, 0]\nclass = NotExited", fillcolor="#e58139"] ;
351 -> 355 ;
356 [label="EstimatedSalary <= 164239.695\ngini = 0.17\nsamples = 96\nvalue = [87, 9]\nclass = NotExited", fillcolor="#e88e4d"] ;
292 -> 356 ;
357 [label="Age <= 29.5\ngini = 0.5\nsamples = 6\nvalue = [3, 3]\nclass = NotExited", fillcolor="#ffffff"] ;
356 -> 357 ;
358 [label="gini = 0.0\nsamples = 3\nvalue = [0, 3]\nclass = Exited", fillcolor="#399de5"] ;
357 -> 358 ;
359 [label="gini = 0.0\nsamples = 3\nvalue = [3, 0]\nclass = NotExited", fillcolor="#e58139"] ;
357 -> 359 ;
360 [label="CreditScore <= 676.5\ngini = 0.124\nsamples = 90\nvalue = [84, 6]\nclass = NotExited", fillcolor="#e78a47"] ;
356 -> 360 ;
361 [label="CreditScore <= 674.0\ngini = 0.191\nsamples = 56\nvalue = [50, 6]\nclass = NotExited", fillcolor="#e89051"] ;
360 -> 361 ;
362 [label="EstimatedSalary <= 173996.773\ngini = 0.165\nsamples = 55\nvalue = [50, 5]\nclass = NotExited", fillcolor="#e88e4d"] ;
361 -> 362 ;
363 [label="gini = 0.0\nsamples = 18\nvalue = [18, 0]\nclass = NotExited", fillcolor="#e58139"] ;
362 -> 363 ;
364 [label="EstimatedSalary <= 174650.859\ngini = 0.234\nsamples = 37\nvalue = [32, 5]\nclass = NotExited", fillcolor="#e99558"] ;
362 -> 364 ;
365 [label="gini = 0.0\nsamples = 1\nvalue = [0, 1]\nclass = Exited", fillcolor="#399de5"] ;
364 -> 365 ;
366 [label="EstimatedSalary <= 183562.992\ngini = 0.198\nsamples = 36\nvalue = [32, 4]\nclass = NotExited", fillcolor="#e89152"] ;
364 -> 366 ;
367 [label="EstimatedSalary <= 179466.133\ngini = 0.332\nsamples = 19\nvalue = [15, 4]\nclass = NotExited", fillcolor="#eca36e"] ;
366 -> 367 ;
368 [label="gini = 0.0\nsamples = 11\nvalue = [11, 0]\nclass = NotExited", fillcolor="#e58139"] ;
367 -> 368 ;
369 [label="Balance <= 106952.02\ngini = 0.5\nsamples = 8\nvalue = [4, 4]\nclass = NotExited", fillcolor="#ffffff"] ;
367 -> 369 ;
370 [label="gini = 0.0\nsamples = 3\nvalue = [3, 0]\nclass = NotExited", fillcolor="#e58139"] ;
369 -> 370 ;
371 [label="Age <= 27.0\ngini = 0.32\nsamples = 5\nvalue = [1, 4]\nclass = Exited", fillcolor="#6ab6ec"] ;
369 -> 371 ;
372 [label="gini = 0.0\nsamples = 1\nvalue = [1, 0]\nclass = NotExited", fillcolor="#e58139"] ;
371 -> 372 ;
373 [label="gini = 0.0\nsamples = 4\nvalue = [0, 4]\nclass = Exited", fillcolor="#399de5"] ;
371 -> 373 ;
374 [label="gini = 0.0\nsamples = 17\nvalue = [17, 0]\nclass = NotExited", fillcolor="#e58139"] ;
366 -> 374 ;
375 [label="gini = 0.0\nsamples = 1\nvalue = [0, 1]\nclass = Exited", fillcolor="#399de5"] ;
361 -> 375 ;
376 [label="gini = 0.0\nsamples = 34\nvalue = [34, 0]\nclass = NotExited", fillcolor="#e58139"] ;
360 -> 376 ;
377 [label="Tenure <= 5.5\ngini = 0.363\nsamples = 42\nvalue = [32, 10]\nclass = NotExited", fillcolor="#eda877"] ;
153 -> 377 ;
378 [label="EstimatedSalary <= 67689.816\ngini = 0.1\nsamples = 19\nvalue = [18, 1]\nclass = NotExited", fillcolor="#e68844"] ;
377 -> 378 ;
379 [label="HasCrCard <= 0.5\ngini = 0.444\nsamples = 3\nvalue = [2, 1]\nclass = NotExited", fillcolor="#f2c09c"] ;
378 -> 379 ;
380 [label="gini = 0.0\nsamples = 2\nvalue = [2, 0]\nclass = NotExited", fillcolor="#e58139"] ;
379 -> 380 ;
381 [label="gini = 0.0\nsamples = 1\nvalue = [0, 1]\nclass = Exited", fillcolor="#399de5"] ;
379 -> 381 ;
382 [label="gini = 0.0\nsamples = 16\nvalue = [16, 0]\nclass = NotExited", fillcolor="#e58139"] ;
378 -> 382 ;
383 [label="Age <= 31.5\ngini = 0.476\nsamples = 23\nvalue = [14, 9]\nclass = NotExited", fillcolor="#f6d2b8"] ;
377 -> 383 ;
384 [label="Age <= 26.0\ngini = 0.278\nsamples = 6\nvalue = [1, 5]\nclass = Exited", fillcolor="#61b1ea"] ;
383 -> 384 ;
385 [label="gini = 0.0\nsamples = 1\nvalue = [1, 0]\nclass = NotExited", fillcolor="#e58139"] ;
384 -> 385 ;
386 [label="gini = 0.0\nsamples = 5\nvalue = [0, 5]\nclass = Exited", fillcolor="#399de5"] ;
384 -> 386 ;
387 [label="Age <= 35.5\ngini = 0.36\nsamples = 17\nvalue = [13, 4]\nclass = NotExited", fillcolor="#eda876"] ;
383 -> 387 ;
388 [label="CreditScore <= 792.5\ngini = 0.153\nsamples = 12\nvalue = [11, 1]\nclass = NotExited", fillcolor="#e78c4b"] ;
387 -> 388 ;
389 [label="gini = 0.0\nsamples = 10\nvalue = [10, 0]\nclass = NotExited", fillcolor="#e58139"] ;
388 -> 389 ;
390 [label="Gender <= 0.5\ngini = 0.5\nsamples = 2\nvalue = [1, 1]\nclass = NotExited", fillcolor="#ffffff"] ;
388 -> 390 ;
391 [label="gini = 0.0\nsamples = 1\nvalue = [0, 1]\nclass = Exited", fillcolor="#399de5"] ;
390 -> 391 ;
392 [label="gini = 0.0\nsamples = 1\nvalue = [1, 0]\nclass = NotExited", fillcolor="#e58139"] ;
390 -> 392 ;
393 [label="Tenure <= 8.5\ngini = 0.48\nsamples = 5\nvalue = [2, 3]\nclass = Exited", fillcolor="#bddef6"] ;
387 -> 393 ;
394 [label="gini = 0.0\nsamples = 3\nvalue = [0, 3]\nclass = Exited", fillcolor="#399de5"] ;
393 -> 394 ;
395 [label="gini = 0.0\nsamples = 2\nvalue = [2, 0]\nclass = NotExited", fillcolor="#e58139"] ;
393 -> 395 ;
396 [label="Balance <= 95175.105\ngini = 0.381\nsamples = 308\nvalue = [229, 79]\nclass = NotExited", fillcolor="#eeac7d"] ;
4 -> 396 ;
397 [label="Gender <= 0.5\ngini = 0.464\nsamples = 123\nvalue = [78, 45]\nclass = NotExited", fillcolor="#f4caab"] ;
396 -> 397 ;
398 [label="Balance <= 88803.41\ngini = 0.499\nsamples = 60\nvalue = [31, 29]\nclass = NotExited", fillcolor="#fdf7f2"] ;
397 -> 398 ;
399 [label="Balance <= 80084.082\ngini = 0.494\nsamples = 56\nvalue = [31, 25]\nclass = NotExited", fillcolor="#fae7d9"] ;
398 -> 399 ;
400 [label="CreditScore <= 797.5\ngini = 0.5\nsamples = 49\nvalue = [24, 25]\nclass = Exited", fillcolor="#f7fbfe"] ;
399 -> 400 ;
401 [label="CreditScore <= 498.0\ngini = 0.499\nsamples = 46\nvalue = [24, 22]\nclass = NotExited", fillcolor="#fdf5ef"] ;
400 -> 401 ;
402 [label="gini = 0.0\nsamples = 2\nvalue = [0, 2]\nclass = Exited", fillcolor="#399de5"] ;
401 -> 402 ;
403 [label="CreditScore <= 539.0\ngini = 0.496\nsamples = 44\nvalue = [24, 20]\nclass = NotExited", fillcolor="#fbeade"] ;
401 -> 403 ;
404 [label="gini = 0.0\nsamples = 5\nvalue = [5, 0]\nclass = NotExited", fillcolor="#e58139"] ;
403 -> 404 ;
405 [label="EstimatedSalary <= 26919.135\ngini = 0.5\nsamples = 39\nvalue = [19, 20]\nclass = Exited", fillcolor="#f5fafe"] ;
403 -> 405 ;
406 [label="EstimatedSalary <= 3228.89\ngini = 0.32\nsamples = 5\nvalue = [4, 1]\nclass = NotExited", fillcolor="#eca06a"] ;
405 -> 406 ;
407 [label="gini = 0.0\nsamples = 1\nvalue = [0, 1]\nclass = Exited", fillcolor="#399de5"] ;
406 -> 407 ;
408 [label="gini = 0.0\nsamples = 4\nvalue = [4, 0]\nclass = NotExited", fillcolor="#e58139"] ;
406 -> 408 ;
409 [label="EstimatedSalary <= 102119.113\ngini = 0.493\nsamples = 34\nvalue = [15, 19]\nclass = Exited", fillcolor="#d5eafa"] ;
405 -> 409 ;
410 [label="Tenure <= 5.5\ngini = 0.375\nsamples = 12\nvalue = [3, 9]\nclass = Exited", fillcolor="#7bbeee"] ;
409 -> 410 ;
411 [label="CreditScore <= 698.0\ngini = 0.219\nsamples = 8\nvalue = [1, 7]\nclass = Exited", fillcolor="#55abe9"] ;
410 -> 411 ;
412 [label="gini = 0.0\nsamples = 6\nvalue = [0, 6]\nclass = Exited", fillcolor="#399de5"] ;
411 -> 412 ;
413 [label="CreditScore <= 737.0\ngini = 0.5\nsamples = 2\nvalue = [1, 1]\nclass = NotExited", fillcolor="#ffffff"] ;
411 -> 413 ;
414 [label="gini = 0.0\nsamples = 1\nvalue = [1, 0]\nclass = NotExited", fillcolor="#e58139"] ;
413 -> 414 ;
415 [label="gini = 0.0\nsamples = 1\nvalue = [0, 1]\nclass = Exited", fillcolor="#399de5"] ;
413 -> 415 ;
416 [label="Tenure <= 6.5\ngini = 0.5\nsamples = 4\nvalue = [2, 2]\nclass = NotExited", fillcolor="#ffffff"] ;
410 -> 416 ;
417 [label="gini = 0.0\nsamples = 2\nvalue = [2, 0]\nclass = NotExited", fillcolor="#e58139"] ;
416 -> 417 ;
418 [label="gini = 0.0\nsamples = 2\nvalue = [0, 2]\nclass = Exited", fillcolor="#399de5"] ;
416 -> 418 ;
419 [label="EstimatedSalary <= 140589.18\ngini = 0.496\nsamples = 22\nvalue = [12, 10]\nclass = NotExited", fillcolor="#fbeade"] ;
409 -> 419 ;
420 [label="CreditScore <= 584.5\ngini = 0.346\nsamples = 9\nvalue = [7, 2]\nclass = NotExited", fillcolor="#eca572"] ;
419 -> 420 ;
421 [label="gini = 0.0\nsamples = 1\nvalue = [0, 1]\nclass = Exited", fillcolor="#399de5"] ;
420 -> 421 ;
422 [label="CreditScore <= 661.5\ngini = 0.219\nsamples = 8\nvalue = [7, 1]\nclass = NotExited", fillcolor="#e99355"] ;
420 -> 422 ;
423 [label="gini = 0.0\nsamples = 5\nvalue = [5, 0]\nclass = NotExited", fillcolor="#e58139"] ;
422 -> 423 ;
424 [label="CreditScore <= 678.0\ngini = 0.444\nsamples = 3\nvalue = [2, 1]\nclass = NotExited", fillcolor="#f2c09c"] ;
422 -> 424 ;
425 [label="gini = 0.0\nsamples = 1\nvalue = [0, 1]\nclass = Exited", fillcolor="#399de5"] ;
424 -> 425 ;
426 [label="gini = 0.0\nsamples = 2\nvalue = [2, 0]\nclass = NotExited", fillcolor="#e58139"] ;
424 -> 426 ;
427 [label="EstimatedSalary <= 154326.32\ngini = 0.473\nsamples = 13\nvalue = [5, 8]\nclass = Exited", fillcolor="#b5daf5"] ;
419 -> 427 ;
428 [label="gini = 0.0\nsamples = 5\nvalue = [0, 5]\nclass = Exited", fillcolor="#399de5"] ;
427 -> 428 ;
429 [label="EstimatedSalary <= 172643.547\ngini = 0.469\nsamples = 8\nvalue = [5, 3]\nclass = NotExited", fillcolor="#f5cdb0"] ;
427 -> 429 ;
430 [label="gini = 0.0\nsamples = 4\nvalue = [4, 0]\nclass = NotExited", fillcolor="#e58139"] ;
429 -> 430 ;
431 [label="HasCrCard <= 0.5\ngini = 0.375\nsamples = 4\nvalue = [1, 3]\nclass = Exited", fillcolor="#7bbeee"] ;
429 -> 431 ;
432 [label="gini = 0.0\nsamples = 1\nvalue = [1, 0]\nclass = NotExited", fillcolor="#e58139"] ;
431 -> 432 ;
433 [label="gini = 0.0\nsamples = 3\nvalue = [0, 3]\nclass = Exited", fillcolor="#399de5"] ;
431 -> 433 ;
434 [label="gini = 0.0\nsamples = 3\nvalue = [0, 3]\nclass = Exited", fillcolor="#399de5"] ;
400 -> 434 ;
435 [label="gini = 0.0\nsamples = 7\nvalue = [7, 0]\nclass = NotExited", fillcolor="#e58139"] ;
399 -> 435 ;
436 [label="gini = 0.0\nsamples = 4\nvalue = [0, 4]\nclass = Exited", fillcolor="#399de5"] ;
398 -> 436 ;
437 [label="EstimatedSalary <= 106850.742\ngini = 0.379\nsamples = 63\nvalue = [47, 16]\nclass = NotExited", fillcolor="#eeac7c"] ;
397 -> 437 ;
438 [label="EstimatedSalary <= 75406.914\ngini = 0.208\nsamples = 34\nvalue = [30, 4]\nclass = NotExited", fillcolor="#e89253"] ;
437 -> 438 ;
439 [label="EstimatedSalary <= 74616.48\ngini = 0.308\nsamples = 21\nvalue = [17, 4]\nclass = NotExited", fillcolor="#eb9f68"] ;
438 -> 439 ;
440 [label="CreditScore <= 685.0\ngini = 0.255\nsamples = 20\nvalue = [17, 3]\nclass = NotExited", fillcolor="#ea975c"] ;
439 -> 440 ;
441 [label="EstimatedSalary <= 21207.135\ngini = 0.124\nsamples = 15\nvalue = [14, 1]\nclass = NotExited", fillcolor="#e78a47"] ;
440 -> 441 ;
442 [label="EstimatedSalary <= 18618.489\ngini = 0.32\nsamples = 5\nvalue = [4, 1]\nclass = NotExited", fillcolor="#eca06a"] ;
441 -> 442 ;
443 [label="gini = 0.0\nsamples = 4\nvalue = [4, 0]\nclass = NotExited", fillcolor="#e58139"] ;
442 -> 443 ;
444 [label="gini = 0.0\nsamples = 1\nvalue = [0, 1]\nclass = Exited", fillcolor="#399de5"] ;
442 -> 444 ;
445 [label="gini = 0.0\nsamples = 10\nvalue = [10, 0]\nclass = NotExited", fillcolor="#e58139"] ;
441 -> 445 ;
446 [label="CreditScore <= 742.0\ngini = 0.48\nsamples = 5\nvalue = [3, 2]\nclass = NotExited", fillcolor="#f6d5bd"] ;
440 -> 446 ;
447 [label="Balance <= 82370.57\ngini = 0.444\nsamples = 3\nvalue = [1, 2]\nclass = Exited", fillcolor="#9ccef2"] ;
446 -> 447 ;
448 [label="gini = 0.0\nsamples = 2\nvalue = [0, 2]\nclass = Exited", fillcolor="#399de5"] ;
447 -> 448 ;
449 [label="gini = 0.0\nsamples = 1\nvalue = [1, 0]\nclass = NotExited", fillcolor="#e58139"] ;
447 -> 449 ;
450 [label="gini = 0.0\nsamples = 2\nvalue = [2, 0]\nclass = NotExited", fillcolor="#e58139"] ;
446 -> 450 ;
451 [label="gini = 0.0\nsamples = 1\nvalue = [0, 1]\nclass = Exited", fillcolor="#399de5"] ;
439 -> 451 ;
452 [label="gini = 0.0\nsamples = 13\nvalue = [13, 0]\nclass = NotExited", fillcolor="#e58139"] ;
438 -> 452 ;
453 [label="Tenure <= 1.5\ngini = 0.485\nsamples = 29\nvalue = [17, 12]\nclass = NotExited", fillcolor="#f7dac5"] ;
437 -> 453 ;
454 [label="gini = 0.0\nsamples = 7\nvalue = [7, 0]\nclass = NotExited", fillcolor="#e58139"] ;
453 -> 454 ;
455 [label="EstimatedSalary <= 139911.859\ngini = 0.496\nsamples = 22\nvalue = [10, 12]\nclass = Exited", fillcolor="#deeffb"] ;
453 -> 455 ;
456 [label="CreditScore <= 706.0\ngini = 0.32\nsamples = 10\nvalue = [2, 8]\nclass = Exited", fillcolor="#6ab6ec"] ;
455 -> 456 ;
457 [label="gini = 0.0\nsamples = 5\nvalue = [0, 5]\nclass = Exited", fillcolor="#399de5"] ;
456 -> 457 ;
458 [label="CreditScore <= 746.0\ngini = 0.48\nsamples = 5\nvalue = [2, 3]\nclass = Exited", fillcolor="#bddef6"] ;
456 -> 458 ;
459 [label="Tenure <= 9.5\ngini = 0.444\nsamples = 3\nvalue = [2, 1]\nclass = NotExited", fillcolor="#f2c09c"] ;
458 -> 459 ;
460 [label="gini = 0.0\nsamples = 2\nvalue = [2, 0]\nclass = NotExited", fillcolor="#e58139"] ;
459 -> 460 ;
461 [label="gini = 0.0\nsamples = 1\nvalue = [0, 1]\nclass = Exited", fillcolor="#399de5"] ;
459 -> 461 ;
462 [label="gini = 0.0\nsamples = 2\nvalue = [0, 2]\nclass = Exited", fillcolor="#399de5"] ;
458 -> 462 ;
463 [label="Balance <= 87598.66\ngini = 0.444\nsamples = 12\nvalue = [8, 4]\nclass = NotExited", fillcolor="#f2c09c"] ;
455 -> 463 ;
464 [label="CreditScore <= 714.0\ngini = 0.32\nsamples = 10\nvalue = [8, 2]\nclass = NotExited", fillcolor="#eca06a"] ;
463 -> 464 ;
465 [label="gini = 0.0\nsamples = 6\nvalue = [6, 0]\nclass = NotExited", fillcolor="#e58139"] ;
464 -> 465 ;
466 [label="IsActiveMember <= 0.5\ngini = 0.5\nsamples = 4\nvalue = [2, 2]\nclass = NotExited", fillcolor="#ffffff"] ;
464 -> 466 ;
467 [label="gini = 0.0\nsamples = 2\nvalue = [0, 2]\nclass = Exited", fillcolor="#399de5"] ;
466 -> 467 ;
468 [label="gini = 0.0\nsamples = 2\nvalue = [2, 0]\nclass = NotExited", fillcolor="#e58139"] ;
466 -> 468 ;
469 [label="gini = 0.0\nsamples = 2\nvalue = [0, 2]\nclass = Exited", fillcolor="#399de5"] ;
463 -> 469 ;
470 [label="Balance <= 138836.141\ngini = 0.3\nsamples = 185\nvalue = [151, 34]\nclass = NotExited", fillcolor="#eb9d66"] ;
396 -> 470 ;
471 [label="CreditScore <= 392.0\ngini = 0.165\nsamples = 121\nvalue = [110, 11]\nclass = NotExited", fillcolor="#e88e4d"] ;
470 -> 471 ;
472 [label="gini = 0.0\nsamples = 1\nvalue = [0, 1]\nclass = Exited", fillcolor="#399de5"] ;
471 -> 472 ;
473 [label="Geography_Category1 <= 0.5\ngini = 0.153\nsamples = 120\nvalue = [110, 10]\nclass = NotExited", fillcolor="#e78c4b"] ;
471 -> 473 ;
474 [label="Balance <= 123734.367\ngini = 0.212\nsamples = 83\nvalue = [73, 10]\nclass = NotExited", fillcolor="#e99254"] ;
473 -> 474 ;
475 [label="EstimatedSalary <= 187545.82\ngini = 0.286\nsamples = 52\nvalue = [43, 9]\nclass = NotExited", fillcolor="#ea9b62"] ;
474 -> 475 ;
476 [label="Age <= 40.5\ngini = 0.245\nsamples = 49\nvalue = [42, 7]\nclass = NotExited", fillcolor="#e9965a"] ;
475 -> 476 ;
477 [label="EstimatedSalary <= 42365.911\ngini = 0.432\nsamples = 19\nvalue = [13, 6]\nclass = NotExited", fillcolor="#f1bb94"] ;
476 -> 477 ;
478 [label="gini = 0.0\nsamples = 2\nvalue = [0, 2]\nclass = Exited", fillcolor="#399de5"] ;
477 -> 478 ;
479 [label="Gender <= 0.5\ngini = 0.36\nsamples = 17\nvalue = [13, 4]\nclass = NotExited", fillcolor="#eda876"] ;
477 -> 479 ;
480 [label="Tenure <= 8.5\ngini = 0.494\nsamples = 9\nvalue = [5, 4]\nclass = NotExited", fillcolor="#fae6d7"] ;
479 -> 480 ;
481 [label="CreditScore <= 660.5\ngini = 0.408\nsamples = 7\nvalue = [5, 2]\nclass = NotExited", fillcolor="#efb388"] ;
480 -> 481 ;
482 [label="Tenure <= 4.5\ngini = 0.444\nsamples = 3\nvalue = [1, 2]\nclass = Exited", fillcolor="#9ccef2"] ;
481 -> 482 ;
483 [label="gini = 0.0\nsamples = 2\nvalue = [0, 2]\nclass = Exited", fillcolor="#399de5"] ;
482 -> 483 ;
484 [label="gini = 0.0\nsamples = 1\nvalue = [1, 0]\nclass = NotExited", fillcolor="#e58139"] ;
482 -> 484 ;
485 [label="gini = 0.0\nsamples = 4\nvalue = [4, 0]\nclass = NotExited", fillcolor="#e58139"] ;
481 -> 485 ;
486 [label="gini = 0.0\nsamples = 2\nvalue = [0, 2]\nclass = Exited", fillcolor="#399de5"] ;
480 -> 486 ;
487 [label="gini = 0.0\nsamples = 8\nvalue = [8, 0]\nclass = NotExited", fillcolor="#e58139"] ;
479 -> 487 ;
488 [label="HasCrCard <= 0.5\ngini = 0.064\nsamples = 30\nvalue = [29, 1]\nclass = NotExited", fillcolor="#e68540"] ;
476 -> 488 ;
489 [label="Tenure <= 7.5\ngini = 0.219\nsamples = 8\nvalue = [7, 1]\nclass = NotExited", fillcolor="#e99355"] ;
488 -> 489 ;
490 [label="gini = 0.0\nsamples = 6\nvalue = [6, 0]\nclass = NotExited", fillcolor="#e58139"] ;
489 -> 490 ;
491 [label="CreditScore <= 579.5\ngini = 0.5\nsamples = 2\nvalue = [1, 1]\nclass = NotExited", fillcolor="#ffffff"] ;
489 -> 491 ;
492 [label="gini = 0.0\nsamples = 1\nvalue = [1, 0]\nclass = NotExited", fillcolor="#e58139"] ;
491 -> 492 ;
493 [label="gini = 0.0\nsamples = 1\nvalue = [0, 1]\nclass = Exited", fillcolor="#399de5"] ;
491 -> 493 ;
494 [label="gini = 0.0\nsamples = 22\nvalue = [22, 0]\nclass = NotExited", fillcolor="#e58139"] ;
488 -> 494 ;
495 [label="Tenure <= 7.5\ngini = 0.444\nsamples = 3\nvalue = [1, 2]\nclass = Exited", fillcolor="#9ccef2"] ;
475 -> 495 ;
496 [label="gini = 0.0\nsamples = 2\nvalue = [0, 2]\nclass = Exited", fillcolor="#399de5"] ;
495 -> 496 ;
497 [label="gini = 0.0\nsamples = 1\nvalue = [1, 0]\nclass = NotExited", fillcolor="#e58139"] ;
495 -> 497 ;
498 [label="Tenure <= 2.5\ngini = 0.062\nsamples = 31\nvalue = [30, 1]\nclass = NotExited", fillcolor="#e68540"] ;
474 -> 498 ;
499 [label="CreditScore <= 629.5\ngini = 0.245\nsamples = 7\nvalue = [6, 1]\nclass = NotExited", fillcolor="#e9965a"] ;
498 -> 499 ;
500 [label="CreditScore <= 616.5\ngini = 0.444\nsamples = 3\nvalue = [2, 1]\nclass = NotExited", fillcolor="#f2c09c"] ;
499 -> 500 ;
501 [label="gini = 0.0\nsamples = 2\nvalue = [2, 0]\nclass = NotExited", fillcolor="#e58139"] ;
500 -> 501 ;
502 [label="gini = 0.0\nsamples = 1\nvalue = [0, 1]\nclass = Exited", fillcolor="#399de5"] ;
500 -> 502 ;
503 [label="gini = 0.0\nsamples = 4\nvalue = [4, 0]\nclass = NotExited", fillcolor="#e58139"] ;
499 -> 503 ;
504 [label="gini = 0.0\nsamples = 24\nvalue = [24, 0]\nclass = NotExited", fillcolor="#e58139"] ;
498 -> 504 ;
505 [label="gini = 0.0\nsamples = 37\nvalue = [37, 0]\nclass = NotExited", fillcolor="#e58139"] ;
473 -> 505 ;
506 [label="Age <= 41.5\ngini = 0.46\nsamples = 64\nvalue = [41, 23]\nclass = NotExited", fillcolor="#f4c8a8"] ;
470 -> 506 ;
507 [label="EstimatedSalary <= 34139.17\ngini = 0.386\nsamples = 46\nvalue = [34, 12]\nclass = NotExited", fillcolor="#eead7f"] ;
506 -> 507 ;
508 [label="gini = 0.0\nsamples = 12\nvalue = [12, 0]\nclass = NotExited", fillcolor="#e58139"] ;
507 -> 508 ;
509 [label="Geography_Category1 <= 0.5\ngini = 0.457\nsamples = 34\nvalue = [22, 12]\nclass = NotExited", fillcolor="#f3c6a5"] ;
507 -> 509 ;
510 [label="Balance <= 140879.516\ngini = 0.499\nsamples = 23\nvalue = [12, 11]\nclass = NotExited", fillcolor="#fdf5ef"] ;
509 -> 510 ;
511 [label="CreditScore <= 603.5\ngini = 0.32\nsamples = 5\nvalue = [1, 4]\nclass = Exited", fillcolor="#6ab6ec"] ;
510 -> 511 ;
512 [label="gini = 0.0\nsamples = 1\nvalue = [1, 0]\nclass = NotExited", fillcolor="#e58139"] ;
511 -> 512 ;
513 [label="gini = 0.0\nsamples = 4\nvalue = [0, 4]\nclass = Exited", fillcolor="#399de5"] ;
511 -> 513 ;
514 [label="CreditScore <= 637.5\ngini = 0.475\nsamples = 18\nvalue = [11, 7]\nclass = NotExited", fillcolor="#f6d1b7"] ;
510 -> 514 ;
515 [label="EstimatedSalary <= 170878.398\ngini = 0.494\nsamples = 9\nvalue = [4, 5]\nclass = Exited", fillcolor="#d7ebfa"] ;
514 -> 515 ;
516 [label="Age <= 40.5\ngini = 0.278\nsamples = 6\nvalue = [1, 5]\nclass = Exited", fillcolor="#61b1ea"] ;
515 -> 516 ;
517 [label="gini = 0.0\nsamples = 4\nvalue = [0, 4]\nclass = Exited", fillcolor="#399de5"] ;
516 -> 517 ;
518 [label="IsActiveMember <= 0.5\ngini = 0.5\nsamples = 2\nvalue = [1, 1]\nclass = NotExited", fillcolor="#ffffff"] ;
516 -> 518 ;
519 [label="gini = 0.0\nsamples = 1\nvalue = [0, 1]\nclass = Exited", fillcolor="#399de5"] ;
518 -> 519 ;
520 [label="gini = 0.0\nsamples = 1\nvalue = [1, 0]\nclass = NotExited", fillcolor="#e58139"] ;
518 -> 520 ;
521 [label="gini = 0.0\nsamples = 3\nvalue = [3, 0]\nclass = NotExited", fillcolor="#e58139"] ;
515 -> 521 ;
522 [label="EstimatedSalary <= 193114.992\ngini = 0.346\nsamples = 9\nvalue = [7, 2]\nclass = NotExited", fillcolor="#eca572"] ;
514 -> 522 ;
523 [label="Balance <= 168461.828\ngini = 0.219\nsamples = 8\nvalue = [7, 1]\nclass = NotExited", fillcolor="#e99355"] ;
522 -> 523 ;
524 [label="gini = 0.0\nsamples = 6\nvalue = [6, 0]\nclass = NotExited", fillcolor="#e58139"] ;
523 -> 524 ;
525 [label="EstimatedSalary <= 105543.598\ngini = 0.5\nsamples = 2\nvalue = [1, 1]\nclass = NotExited", fillcolor="#ffffff"] ;
523 -> 525 ;
526 [label="gini = 0.0\nsamples = 1\nvalue = [1, 0]\nclass = NotExited", fillcolor="#e58139"] ;
525 -> 526 ;
527 [label="gini = 0.0\nsamples = 1\nvalue = [0, 1]\nclass = Exited", fillcolor="#399de5"] ;
525 -> 527 ;
528 [label="gini = 0.0\nsamples = 1\nvalue = [0, 1]\nclass = Exited", fillcolor="#399de5"] ;
522 -> 528 ;
529 [label="CreditScore <= 713.5\ngini = 0.165\nsamples = 11\nvalue = [10, 1]\nclass = NotExited", fillcolor="#e88e4d"] ;
509 -> 529 ;
530 [label="gini = 0.0\nsamples = 9\nvalue = [9, 0]\nclass = NotExited", fillcolor="#e58139"] ;
529 -> 530 ;
531 [label="Balance <= 160814.414\ngini = 0.5\nsamples = 2\nvalue = [1, 1]\nclass = NotExited", fillcolor="#ffffff"] ;
529 -> 531 ;
532 [label="gini = 0.0\nsamples = 1\nvalue = [1, 0]\nclass = NotExited", fillcolor="#e58139"] ;
531 -> 532 ;
533 [label="gini = 0.0\nsamples = 1\nvalue = [0, 1]\nclass = Exited", fillcolor="#399de5"] ;
531 -> 533 ;
534 [label="EstimatedSalary <= 11540.84\ngini = 0.475\nsamples = 18\nvalue = [7, 11]\nclass = Exited", fillcolor="#b7dbf6"] ;
506 -> 534 ;
535 [label="gini = 0.0\nsamples = 2\nvalue = [2, 0]\nclass = NotExited", fillcolor="#e58139"] ;
534 -> 535 ;
536 [label="CreditScore <= 616.0\ngini = 0.43\nsamples = 16\nvalue = [5, 11]\nclass = Exited", fillcolor="#93caf1"] ;
534 -> 536 ;
537 [label="Balance <= 155051.18\ngini = 0.496\nsamples = 11\nvalue = [5, 6]\nclass = Exited", fillcolor="#deeffb"] ;
536 -> 537 ;
538 [label="Balance <= 139315.984\ngini = 0.32\nsamples = 5\nvalue = [1, 4]\nclass = Exited", fillcolor="#6ab6ec"] ;
537 -> 538 ;
539 [label="gini = 0.0\nsamples = 1\nvalue = [1, 0]\nclass = NotExited", fillcolor="#e58139"] ;
538 -> 539 ;
540 [label="gini = 0.0\nsamples = 4\nvalue = [0, 4]\nclass = Exited", fillcolor="#399de5"] ;
538 -> 540 ;
541 [label="CreditScore <= 530.5\ngini = 0.444\nsamples = 6\nvalue = [4, 2]\nclass = NotExited", fillcolor="#f2c09c"] ;
537 -> 541 ;
542 [label="gini = 0.0\nsamples = 2\nvalue = [2, 0]\nclass = NotExited", fillcolor="#e58139"] ;
541 -> 542 ;
543 [label="CreditScore <= 534.5\ngini = 0.5\nsamples = 4\nvalue = [2, 2]\nclass = NotExited", fillcolor="#ffffff"] ;
541 -> 543 ;
544 [label="gini = 0.0\nsamples = 1\nvalue = [0, 1]\nclass = Exited", fillcolor="#399de5"] ;
543 -> 544 ;
545 [label="EstimatedSalary <= 139049.555\ngini = 0.444\nsamples = 3\nvalue = [2, 1]\nclass = NotExited", fillcolor="#f2c09c"] ;
543 -> 545 ;
546 [label="gini = 0.0\nsamples = 2\nvalue = [2, 0]\nclass = NotExited", fillcolor="#e58139"] ;
545 -> 546 ;
547 [label="gini = 0.0\nsamples = 1\nvalue = [0, 1]\nclass = Exited", fillcolor="#399de5"] ;
545 -> 547 ;
548 [label="gini = 0.0\nsamples = 5\nvalue = [0, 5]\nclass = Exited", fillcolor="#399de5"] ;
536 -> 548 ;
549 [label="Balance <= 97709.641\ngini = 0.381\nsamples = 581\nvalue = [432, 149]\nclass = NotExited", fillcolor="#eeac7d"] ;
3 -> 549 ;
550 [label="Tenure <= 8.5\ngini = 0.123\nsamples = 106\nvalue = [99, 7]\nclass = NotExited", fillcolor="#e78a47"] ;
549 -> 550 ;
551 [label="CreditScore <= 661.5\ngini = 0.065\nsamples = 89\nvalue = [86, 3]\nclass = NotExited", fillcolor="#e68540"] ;
550 -> 551 ;
552 [label="gini = 0.0\nsamples = 47\nvalue = [47, 0]\nclass = NotExited", fillcolor="#e58139"] ;
551 -> 552 ;
553 [label="CreditScore <= 663.5\ngini = 0.133\nsamples = 42\nvalue = [39, 3]\nclass = NotExited", fillcolor="#e78b48"] ;
551 -> 553 ;
554 [label="Age <= 39.0\ngini = 0.5\nsamples = 2\nvalue = [1, 1]\nclass = NotExited", fillcolor="#ffffff"] ;
553 -> 554 ;
555 [label="gini = 0.0\nsamples = 1\nvalue = [0, 1]\nclass = Exited", fillcolor="#399de5"] ;
554 -> 555 ;
556 [label="gini = 0.0\nsamples = 1\nvalue = [1, 0]\nclass = NotExited", fillcolor="#e58139"] ;
554 -> 556 ;
557 [label="Age <= 40.5\ngini = 0.095\nsamples = 40\nvalue = [38, 2]\nclass = NotExited", fillcolor="#e68843"] ;
553 -> 557 ;
558 [label="CreditScore <= 691.5\ngini = 0.054\nsamples = 36\nvalue = [35, 1]\nclass = NotExited", fillcolor="#e6853f"] ;
557 -> 558 ;
559 [label="CreditScore <= 686.5\ngini = 0.219\nsamples = 8\nvalue = [7, 1]\nclass = NotExited", fillcolor="#e99355"] ;
558 -> 559 ;
560 [label="gini = 0.0\nsamples = 7\nvalue = [7, 0]\nclass = NotExited", fillcolor="#e58139"] ;
559 -> 560 ;
561 [label="gini = 0.0\nsamples = 1\nvalue = [0, 1]\nclass = Exited", fillcolor="#399de5"] ;
559 -> 561 ;
562 [label="gini = 0.0\nsamples = 28\nvalue = [28, 0]\nclass = NotExited", fillcolor="#e58139"] ;
558 -> 562 ;
563 [label="CreditScore <= 743.0\ngini = 0.375\nsamples = 4\nvalue = [3, 1]\nclass = NotExited", fillcolor="#eeab7b"] ;
557 -> 563 ;
564 [label="gini = 0.0\nsamples = 1\nvalue = [0, 1]\nclass = Exited", fillcolor="#399de5"] ;
563 -> 564 ;
565 [label="gini = 0.0\nsamples = 3\nvalue = [3, 0]\nclass = NotExited", fillcolor="#e58139"] ;
563 -> 565 ;
566 [label="Balance <= 90972.762\ngini = 0.36\nsamples = 17\nvalue = [13, 4]\nclass = NotExited", fillcolor="#eda876"] ;
550 -> 566 ;
567 [label="Balance <= 67589.445\ngini = 0.231\nsamples = 15\nvalue = [13, 2]\nclass = NotExited", fillcolor="#e99457"] ;
566 -> 567 ;
568 [label="gini = 0.0\nsamples = 1\nvalue = [0, 1]\nclass = Exited", fillcolor="#399de5"] ;
567 -> 568 ;
569 [label="Age <= 24.0\ngini = 0.133\nsamples = 14\nvalue = [13, 1]\nclass = NotExited", fillcolor="#e78b48"] ;
567 -> 569 ;
570 [label="gini = 0.0\nsamples = 1\nvalue = [0, 1]\nclass = Exited", fillcolor="#399de5"] ;
569 -> 570 ;
571 [label="gini = 0.0\nsamples = 13\nvalue = [13, 0]\nclass = NotExited", fillcolor="#e58139"] ;
569 -> 571 ;
572 [label="gini = 0.0\nsamples = 2\nvalue = [0, 2]\nclass = Exited", fillcolor="#399de5"] ;
566 -> 572 ;
573 [label="Balance <= 145198.57\ngini = 0.419\nsamples = 475\nvalue = [333, 142]\nclass = NotExited", fillcolor="#f0b78d"] ;
549 -> 573 ;
574 [label="Age <= 37.5\ngini = 0.458\nsamples = 375\nvalue = [242, 133]\nclass = NotExited", fillcolor="#f3c6a6"] ;
573 -> 574 ;
575 [label="EstimatedSalary <= 73949.969\ngini = 0.409\nsamples = 265\nvalue = [189, 76]\nclass = NotExited", fillcolor="#efb489"] ;
574 -> 575 ;
576 [label="CreditScore <= 476.5\ngini = 0.482\nsamples = 84\nvalue = [50, 34]\nclass = NotExited", fillcolor="#f7d7c0"] ;
575 -> 576 ;
577 [label="gini = 0.0\nsamples = 3\nvalue = [0, 3]\nclass = Exited", fillcolor="#399de5"] ;
576 -> 577 ;
578 [label="EstimatedSalary <= 63864.441\ngini = 0.472\nsamples = 81\nvalue = [50, 31]\nclass = NotExited", fillcolor="#f5cfb4"] ;
576 -> 578 ;
579 [label="Balance <= 101048.566\ngini = 0.448\nsamples = 71\nvalue = [47, 24]\nclass = NotExited", fillcolor="#f2c19e"] ;
578 -> 579 ;
580 [label="CreditScore <= 558.5\ngini = 0.32\nsamples = 5\nvalue = [1, 4]\nclass = Exited", fillcolor="#6ab6ec"] ;
579 -> 580 ;
581 [label="gini = 0.0\nsamples = 1\nvalue = [1, 0]\nclass = NotExited", fillcolor="#e58139"] ;
580 -> 581 ;
582 [label="gini = 0.0\nsamples = 4\nvalue = [0, 4]\nclass = Exited", fillcolor="#399de5"] ;
580 -> 582 ;
583 [label="Tenure <= 0.5\ngini = 0.422\nsamples = 66\nvalue = [46, 20]\nclass = NotExited", fillcolor="#f0b88f"] ;
579 -> 583 ;
584 [label="Balance <= 105616.426\ngini = 0.375\nsamples = 4\nvalue = [1, 3]\nclass = Exited", fillcolor="#7bbeee"] ;
583 -> 584 ;
585 [label="gini = 0.0\nsamples = 1\nvalue = [1, 0]\nclass = NotExited", fillcolor="#e58139"] ;
584 -> 585 ;
586 [label="gini = 0.0\nsamples = 3\nvalue = [0, 3]\nclass = Exited", fillcolor="#399de5"] ;
584 -> 586 ;
587 [label="EstimatedSalary <= 9252.985\ngini = 0.398\nsamples = 62\nvalue = [45, 17]\nclass = NotExited", fillcolor="#efb184"] ;
583 -> 587 ;
588 [label="gini = 0.0\nsamples = 7\nvalue = [7, 0]\nclass = NotExited", fillcolor="#e58139"] ;
587 -> 588 ;
589 [label="CreditScore <= 546.0\ngini = 0.427\nsamples = 55\nvalue = [38, 17]\nclass = NotExited", fillcolor="#f1b992"] ;
587 -> 589 ;
590 [label="gini = 0.0\nsamples = 5\nvalue = [5, 0]\nclass = NotExited", fillcolor="#e58139"] ;
589 -> 590 ;
591 [label="CreditScore <= 562.0\ngini = 0.449\nsamples = 50\nvalue = [33, 17]\nclass = NotExited", fillcolor="#f2c29f"] ;
589 -> 591 ;
592 [label="gini = 0.0\nsamples = 2\nvalue = [0, 2]\nclass = Exited", fillcolor="#399de5"] ;
591 -> 592 ;
593 [label="Balance <= 110399.371\ngini = 0.43\nsamples = 48\nvalue = [33, 15]\nclass = NotExited", fillcolor="#f1ba93"] ;
591 -> 593 ;
594 [label="EstimatedSalary <= 27691.92\ngini = 0.494\nsamples = 9\nvalue = [4, 5]\nclass = Exited", fillcolor="#d7ebfa"] ;
593 -> 594 ;
595 [label="CreditScore <= 762.5\ngini = 0.32\nsamples = 5\nvalue = [4, 1]\nclass = NotExited", fillcolor="#eca06a"] ;
594 -> 595 ;
596 [label="gini = 0.0\nsamples = 4\nvalue = [4, 0]\nclass = NotExited", fillcolor="#e58139"] ;
595 -> 596 ;
597 [label="gini = 0.0\nsamples = 1\nvalue = [0, 1]\nclass = Exited", fillcolor="#399de5"] ;
595 -> 597 ;
598 [label="gini = 0.0\nsamples = 4\nvalue = [0, 4]\nclass = Exited", fillcolor="#399de5"] ;
594 -> 598 ;
599 [label="Balance <= 121609.398\ngini = 0.381\nsamples = 39\nvalue = [29, 10]\nclass = NotExited", fillcolor="#eeac7d"] ;
593 -> 599 ;
600 [label="CreditScore <= 761.0\ngini = 0.133\nsamples = 14\nvalue = [13, 1]\nclass = NotExited", fillcolor="#e78b48"] ;
599 -> 600 ;
601 [label="gini = 0.0\nsamples = 12\nvalue = [12, 0]\nclass = NotExited", fillcolor="#e58139"] ;
600 -> 601 ;
602 [label="EstimatedSalary <= 52132.176\ngini = 0.5\nsamples = 2\nvalue = [1, 1]\nclass = NotExited", fillcolor="#ffffff"] ;
600 -> 602 ;
603 [label="gini = 0.0\nsamples = 1\nvalue = [1, 0]\nclass = NotExited", fillcolor="#e58139"] ;
602 -> 603 ;
604 [label="gini = 0.0\nsamples = 1\nvalue = [0, 1]\nclass = Exited", fillcolor="#399de5"] ;
602 -> 604 ;
605 [label="Balance <= 121989.367\ngini = 0.461\nsamples = 25\nvalue = [16, 9]\nclass = NotExited", fillcolor="#f4c8a8"] ;
599 -> 605 ;
606 [label="gini = 0.0\nsamples = 2\nvalue = [0, 2]\nclass = Exited", fillcolor="#399de5"] ;
605 -> 606 ;
607 [label="EstimatedSalary <= 10595.035\ngini = 0.423\nsamples = 23\nvalue = [16, 7]\nclass = NotExited", fillcolor="#f0b890"] ;
605 -> 607 ;
608 [label="gini = 0.0\nsamples = 1\nvalue = [0, 1]\nclass = Exited", fillcolor="#399de5"] ;
607 -> 608 ;
609 [label="CreditScore <= 833.5\ngini = 0.397\nsamples = 22\nvalue = [16, 6]\nclass = NotExited", fillcolor="#efb083"] ;
607 -> 609 ;
610 [label="Balance <= 137294.422\ngini = 0.363\nsamples = 21\nvalue = [16, 5]\nclass = NotExited", fillcolor="#eda877"] ;
609 -> 610 ;
611 [label="Balance <= 129064.641\ngini = 0.459\nsamples = 14\nvalue = [9, 5]\nclass = NotExited", fillcolor="#f3c7a7"] ;
610 -> 611 ;
612 [label="gini = 0.0\nsamples = 4\nvalue = [4, 0]\nclass = NotExited", fillcolor="#e58139"] ;
611 -> 612 ;
613 [label="HasCrCard <= 0.5\ngini = 0.5\nsamples = 10\nvalue = [5, 5]\nclass = NotExited", fillcolor="#ffffff"] ;
611 -> 613 ;
614 [label="gini = 0.0\nsamples = 2\nvalue = [2, 0]\nclass = NotExited", fillcolor="#e58139"] ;
613 -> 614 ;
615 [label="EstimatedSalary <= 51468.484\ngini = 0.469\nsamples = 8\nvalue = [3, 5]\nclass = Exited", fillcolor="#b0d8f5"] ;
613 -> 615 ;
616 [label="gini = 0.0\nsamples = 4\nvalue = [0, 4]\nclass = Exited", fillcolor="#399de5"] ;
615 -> 616 ;
617 [label="Balance <= 129573.125\ngini = 0.375\nsamples = 4\nvalue = [3, 1]\nclass = NotExited", fillcolor="#eeab7b"] ;
615 -> 617 ;
618 [label="gini = 0.0\nsamples = 1\nvalue = [0, 1]\nclass = Exited", fillcolor="#399de5"] ;
617 -> 618 ;
619 [label="gini = 0.0\nsamples = 3\nvalue = [3, 0]\nclass = NotExited", fillcolor="#e58139"] ;
617 -> 619 ;
620 [label="gini = 0.0\nsamples = 7\nvalue = [7, 0]\nclass = NotExited", fillcolor="#e58139"] ;
610 -> 620 ;
621 [label="gini = 0.0\nsamples = 1\nvalue = [0, 1]\nclass = Exited", fillcolor="#399de5"] ;
609 -> 621 ;
622 [label="EstimatedSalary <= 70072.359\ngini = 0.42\nsamples = 10\nvalue = [3, 7]\nclass = Exited", fillcolor="#8ec7f0"] ;
578 -> 622 ;
623 [label="gini = 0.0\nsamples = 5\nvalue = [0, 5]\nclass = Exited", fillcolor="#399de5"] ;
622 -> 623 ;
624 [label="Tenure <= 5.0\ngini = 0.48\nsamples = 5\nvalue = [3, 2]\nclass = NotExited", fillcolor="#f6d5bd"] ;
622 -> 624 ;
625 [label="gini = 0.0\nsamples = 3\nvalue = [3, 0]\nclass = NotExited", fillcolor="#e58139"] ;
624 -> 625 ;
626 [label="gini = 0.0\nsamples = 2\nvalue = [0, 2]\nclass = Exited", fillcolor="#399de5"] ;
624 -> 626 ;
627 [label="Age <= 33.5\ngini = 0.356\nsamples = 181\nvalue = [139, 42]\nclass = NotExited", fillcolor="#eda775"] ;
575 -> 627 ;
628 [label="EstimatedSalary <= 105590.902\ngini = 0.272\nsamples = 117\nvalue = [98, 19]\nclass = NotExited", fillcolor="#ea995f"] ;
627 -> 628 ;
629 [label="gini = 0.0\nsamples = 23\nvalue = [23, 0]\nclass = NotExited", fillcolor="#e58139"] ;
628 -> 629 ;
630 [label="Balance <= 104283.254\ngini = 0.323\nsamples = 94\nvalue = [75, 19]\nclass = NotExited", fillcolor="#eca16b"] ;
628 -> 630 ;
631 [label="gini = 0.0\nsamples = 14\nvalue = [14, 0]\nclass = NotExited", fillcolor="#e58139"] ;
630 -> 631 ;
632 [label="EstimatedSalary <= 106869.137\ngini = 0.362\nsamples = 80\nvalue = [61, 19]\nclass = NotExited", fillcolor="#eda877"] ;
630 -> 632 ;
633 [label="gini = 0.0\nsamples = 2\nvalue = [0, 2]\nclass = Exited", fillcolor="#399de5"] ;
632 -> 633 ;
634 [label="Balance <= 113789.84\ngini = 0.341\nsamples = 78\nvalue = [61, 17]\nclass = NotExited", fillcolor="#eca470"] ;
632 -> 634 ;
635 [label="Gender <= 0.5\ngini = 0.484\nsamples = 17\nvalue = [10, 7]\nclass = NotExited", fillcolor="#f7d9c4"] ;
634 -> 635 ;
636 [label="Tenure <= 7.5\ngini = 0.42\nsamples = 10\nvalue = [3, 7]\nclass = Exited", fillcolor="#8ec7f0"] ;
635 -> 636 ;
637 [label="EstimatedSalary <= 150496.758\ngini = 0.5\nsamples = 6\nvalue = [3, 3]\nclass = NotExited", fillcolor="#ffffff"] ;
636 -> 637 ;
638 [label="gini = 0.0\nsamples = 2\nvalue = [2, 0]\nclass = NotExited", fillcolor="#e58139"] ;
637 -> 638 ;
639 [label="Balance <= 104974.066\ngini = 0.375\nsamples = 4\nvalue = [1, 3]\nclass = Exited", fillcolor="#7bbeee"] ;
637 -> 639 ;
640 [label="gini = 0.0\nsamples = 1\nvalue = [1, 0]\nclass = NotExited", fillcolor="#e58139"] ;
639 -> 640 ;
641 [label="gini = 0.0\nsamples = 3\nvalue = [0, 3]\nclass = Exited", fillcolor="#399de5"] ;
639 -> 641 ;
642 [label="gini = 0.0\nsamples = 4\nvalue = [0, 4]\nclass = Exited", fillcolor="#399de5"] ;
636 -> 642 ;
643 [label="gini = 0.0\nsamples = 7\nvalue = [7, 0]\nclass = NotExited", fillcolor="#e58139"] ;
635 -> 643 ;
644 [label="HasCrCard <= 0.5\ngini = 0.274\nsamples = 61\nvalue = [51, 10]\nclass = NotExited", fillcolor="#ea9a60"] ;
634 -> 644 ;
645 [label="Age <= 21.5\ngini = 0.43\nsamples = 16\nvalue = [11, 5]\nclass = NotExited", fillcolor="#f1ba93"] ;
644 -> 645 ;
646 [label="gini = 0.0\nsamples = 2\nvalue = [0, 2]\nclass = Exited", fillcolor="#399de5"] ;
645 -> 646 ;
647 [label="EstimatedSalary <= 154391.156\ngini = 0.337\nsamples = 14\nvalue = [11, 3]\nclass = NotExited", fillcolor="#eca36f"] ;
645 -> 647 ;
648 [label="EstimatedSalary <= 141077.32\ngini = 0.469\nsamples = 8\nvalue = [5, 3]\nclass = NotExited", fillcolor="#f5cdb0"] ;
647 -> 648 ;
649 [label="Balance <= 118399.785\ngini = 0.408\nsamples = 7\nvalue = [5, 2]\nclass = NotExited", fillcolor="#efb388"] ;
648 -> 649 ;
650 [label="gini = 0.0\nsamples = 1\nvalue = [0, 1]\nclass = Exited", fillcolor="#399de5"] ;
649 -> 650 ;
651 [label="CreditScore <= 554.0\ngini = 0.278\nsamples = 6\nvalue = [5, 1]\nclass = NotExited", fillcolor="#ea9a61"] ;
649 -> 651 ;
652 [label="gini = 0.0\nsamples = 1\nvalue = [0, 1]\nclass = Exited", fillcolor="#399de5"] ;
651 -> 652 ;
653 [label="gini = 0.0\nsamples = 5\nvalue = [5, 0]\nclass = NotExited", fillcolor="#e58139"] ;
651 -> 653 ;
654 [label="gini = 0.0\nsamples = 1\nvalue = [0, 1]\nclass = Exited", fillcolor="#399de5"] ;
648 -> 654 ;
655 [label="gini = 0.0\nsamples = 6\nvalue = [6, 0]\nclass = NotExited", fillcolor="#e58139"] ;
647 -> 655 ;
656 [label="Tenure <= 3.5\ngini = 0.198\nsamples = 45\nvalue = [40, 5]\nclass = NotExited", fillcolor="#e89152"] ;
644 -> 656 ;
657 [label="gini = 0.0\nsamples = 17\nvalue = [17, 0]\nclass = NotExited", fillcolor="#e58139"] ;
656 -> 657 ;
658 [label="Balance <= 134985.227\ngini = 0.293\nsamples = 28\nvalue = [23, 5]\nclass = NotExited", fillcolor="#eb9c64"] ;
656 -> 658 ;
659 [label="IsActiveMember <= 0.5\ngini = 0.172\nsamples = 21\nvalue = [19, 2]\nclass = NotExited", fillcolor="#e88e4e"] ;
658 -> 659 ;
660 [label="Age <= 28.0\ngini = 0.346\nsamples = 9\nvalue = [7, 2]\nclass = NotExited", fillcolor="#eca572"] ;
659 -> 660 ;
661 [label="gini = 0.0\nsamples = 1\nvalue = [0, 1]\nclass = Exited", fillcolor="#399de5"] ;
660 -> 661 ;
662 [label="CreditScore <= 549.0\ngini = 0.219\nsamples = 8\nvalue = [7, 1]\nclass = NotExited", fillcolor="#e99355"] ;
660 -> 662 ;
663 [label="gini = 0.0\nsamples = 1\nvalue = [0, 1]\nclass = Exited", fillcolor="#399de5"] ;
662 -> 663 ;
664 [label="gini = 0.0\nsamples = 7\nvalue = [7, 0]\nclass = NotExited", fillcolor="#e58139"] ;
662 -> 664 ;
665 [label="gini = 0.0\nsamples = 12\nvalue = [12, 0]\nclass = NotExited", fillcolor="#e58139"] ;
659 -> 665 ;
666 [label="IsActiveMember <= 0.5\ngini = 0.49\nsamples = 7\nvalue = [4, 3]\nclass = NotExited", fillcolor="#f8e0ce"] ;
658 -> 666 ;
667 [label="gini = 0.0\nsamples = 4\nvalue = [4, 0]\nclass = NotExited", fillcolor="#e58139"] ;
666 -> 667 ;
668 [label="gini = 0.0\nsamples = 3\nvalue = [0, 3]\nclass = Exited", fillcolor="#399de5"] ;
666 -> 668 ;
669 [label="Balance <= 123730.359\ngini = 0.46\nsamples = 64\nvalue = [41, 23]\nclass = NotExited", fillcolor="#f4c8a8"] ;
627 -> 669 ;
670 [label="EstimatedSalary <= 94526.781\ngini = 0.495\nsamples = 40\nvalue = [22, 18]\nclass = NotExited", fillcolor="#fae8db"] ;
669 -> 670 ;
671 [label="gini = 0.0\nsamples = 5\nvalue = [5, 0]\nclass = NotExited", fillcolor="#e58139"] ;
670 -> 671 ;
672 [label="EstimatedSalary <= 117926.066\ngini = 0.5\nsamples = 35\nvalue = [17, 18]\nclass = Exited", fillcolor="#f4fafe"] ;
670 -> 672 ;
673 [label="gini = 0.0\nsamples = 6\nvalue = [0, 6]\nclass = Exited", fillcolor="#399de5"] ;
672 -> 673 ;
674 [label="EstimatedSalary <= 186238.047\ngini = 0.485\nsamples = 29\nvalue = [17, 12]\nclass = NotExited", fillcolor="#f7dac5"] ;
672 -> 674 ;
675 [label="IsActiveMember <= 0.5\ngini = 0.388\nsamples = 19\nvalue = [14, 5]\nclass = NotExited", fillcolor="#eeae80"] ;
674 -> 675 ;
676 [label="Balance <= 104391.938\ngini = 0.5\nsamples = 8\nvalue = [4, 4]\nclass = NotExited", fillcolor="#ffffff"] ;
675 -> 676 ;
677 [label="gini = 0.0\nsamples = 4\nvalue = [4, 0]\nclass = NotExited", fillcolor="#e58139"] ;
676 -> 677 ;
678 [label="gini = 0.0\nsamples = 4\nvalue = [0, 4]\nclass = Exited", fillcolor="#399de5"] ;
676 -> 678 ;
679 [label="Balance <= 107077.789\ngini = 0.165\nsamples = 11\nvalue = [10, 1]\nclass = NotExited", fillcolor="#e88e4d"] ;
675 -> 679 ;
680 [label="gini = 0.0\nsamples = 1\nvalue = [0, 1]\nclass = Exited", fillcolor="#399de5"] ;
679 -> 680 ;
681 [label="gini = 0.0\nsamples = 10\nvalue = [10, 0]\nclass = NotExited", fillcolor="#e58139"] ;
679 -> 681 ;
682 [label="Tenure <= 7.0\ngini = 0.42\nsamples = 10\nvalue = [3, 7]\nclass = Exited", fillcolor="#8ec7f0"] ;
674 -> 682 ;
683 [label="Balance <= 102718.672\ngini = 0.5\nsamples = 6\nvalue = [3, 3]\nclass = NotExited", fillcolor="#ffffff"] ;
682 -> 683 ;
684 [label="gini = 0.0\nsamples = 1\nvalue = [1, 0]\nclass = NotExited", fillcolor="#e58139"] ;
683 -> 684 ;
685 [label="Balance <= 104062.797\ngini = 0.48\nsamples = 5\nvalue = [2, 3]\nclass = Exited", fillcolor="#bddef6"] ;
683 -> 685 ;
686 [label="gini = 0.0\nsamples = 2\nvalue = [0, 2]\nclass = Exited", fillcolor="#399de5"] ;
685 -> 686 ;
687 [label="Balance <= 118339.672\ngini = 0.444\nsamples = 3\nvalue = [2, 1]\nclass = NotExited", fillcolor="#f2c09c"] ;
685 -> 687 ;
688 [label="gini = 0.0\nsamples = 2\nvalue = [2, 0]\nclass = NotExited", fillcolor="#e58139"] ;
687 -> 688 ;
689 [label="gini = 0.0\nsamples = 1\nvalue = [0, 1]\nclass = Exited", fillcolor="#399de5"] ;
687 -> 689 ;
690 [label="gini = 0.0\nsamples = 4\nvalue = [0, 4]\nclass = Exited", fillcolor="#399de5"] ;
682 -> 690 ;
691 [label="CreditScore <= 761.5\ngini = 0.33\nsamples = 24\nvalue = [19, 5]\nclass = NotExited", fillcolor="#eca26d"] ;
669 -> 691 ;
692 [label="Age <= 34.5\ngini = 0.245\nsamples = 21\nvalue = [18, 3]\nclass = NotExited", fillcolor="#e9965a"] ;
691 -> 692 ;
693 [label="gini = 0.0\nsamples = 1\nvalue = [0, 1]\nclass = Exited", fillcolor="#399de5"] ;
692 -> 693 ;
694 [label="EstimatedSalary <= 84111.426\ngini = 0.18\nsamples = 20\nvalue = [18, 2]\nclass = NotExited", fillcolor="#e88f4f"] ;
692 -> 694 ;
695 [label="gini = 0.0\nsamples = 1\nvalue = [0, 1]\nclass = Exited", fillcolor="#399de5"] ;
694 -> 695 ;
696 [label="Balance <= 137354.977\ngini = 0.1\nsamples = 19\nvalue = [18, 1]\nclass = NotExited", fillcolor="#e68844"] ;
694 -> 696 ;
697 [label="gini = 0.0\nsamples = 13\nvalue = [13, 0]\nclass = NotExited", fillcolor="#e58139"] ;
696 -> 697 ;
698 [label="Balance <= 138317.859\ngini = 0.278\nsamples = 6\nvalue = [5, 1]\nclass = NotExited", fillcolor="#ea9a61"] ;
696 -> 698 ;
699 [label="gini = 0.0\nsamples = 1\nvalue = [0, 1]\nclass = Exited", fillcolor="#399de5"] ;
698 -> 699 ;
700 [label="gini = 0.0\nsamples = 5\nvalue = [5, 0]\nclass = NotExited", fillcolor="#e58139"] ;
698 -> 700 ;
701 [label="Tenure <= 2.5\ngini = 0.444\nsamples = 3\nvalue = [1, 2]\nclass = Exited", fillcolor="#9ccef2"] ;
691 -> 701 ;
702 [label="gini = 0.0\nsamples = 1\nvalue = [1, 0]\nclass = NotExited", fillcolor="#e58139"] ;
701 -> 702 ;
703 [label="gini = 0.0\nsamples = 2\nvalue = [0, 2]\nclass = Exited", fillcolor="#399de5"] ;
701 -> 703 ;
704 [label="CreditScore <= 723.0\ngini = 0.499\nsamples = 110\nvalue = [53, 57]\nclass = Exited", fillcolor="#f1f8fd"] ;
574 -> 704 ;
705 [label="Tenure <= 1.5\ngini = 0.484\nsamples = 90\nvalue = [37, 53]\nclass = Exited", fillcolor="#c3e1f7"] ;
704 -> 705 ;
706 [label="EstimatedSalary <= 147889.898\ngini = 0.236\nsamples = 22\nvalue = [3, 19]\nclass = Exited", fillcolor="#58ace9"] ;
705 -> 706 ;
707 [label="Balance <= 133190.797\ngini = 0.172\nsamples = 21\nvalue = [2, 19]\nclass = Exited", fillcolor="#4ea7e8"] ;
706 -> 707 ;
708 [label="EstimatedSalary <= 21425.245\ngini = 0.105\nsamples = 18\nvalue = [1, 17]\nclass = Exited", fillcolor="#45a3e7"] ;
707 -> 708 ;
709 [label="EstimatedSalary <= 17889.505\ngini = 0.375\nsamples = 4\nvalue = [1, 3]\nclass = Exited", fillcolor="#7bbeee"] ;
708 -> 709 ;
710 [label="gini = 0.0\nsamples = 3\nvalue = [0, 3]\nclass = Exited", fillcolor="#399de5"] ;
709 -> 710 ;
711 [label="gini = 0.0\nsamples = 1\nvalue = [1, 0]\nclass = NotExited", fillcolor="#e58139"] ;
709 -> 711 ;
712 [label="gini = 0.0\nsamples = 14\nvalue = [0, 14]\nclass = Exited", fillcolor="#399de5"] ;
708 -> 712 ;
713 [label="Tenure <= 0.5\ngini = 0.444\nsamples = 3\nvalue = [1, 2]\nclass = Exited", fillcolor="#9ccef2"] ;
707 -> 713 ;
714 [label="gini = 0.0\nsamples = 1\nvalue = [1, 0]\nclass = NotExited", fillcolor="#e58139"] ;
713 -> 714 ;
715 [label="gini = 0.0\nsamples = 2\nvalue = [0, 2]\nclass = Exited", fillcolor="#399de5"] ;
713 -> 715 ;
716 [label="gini = 0.0\nsamples = 1\nvalue = [1, 0]\nclass = NotExited", fillcolor="#e58139"] ;
706 -> 716 ;
717 [label="CreditScore <= 613.0\ngini = 0.5\nsamples = 68\nvalue = [34, 34]\nclass = NotExited", fillcolor="#ffffff"] ;
705 -> 717 ;
718 [label="Balance <= 131735.949\ngini = 0.458\nsamples = 31\nvalue = [20, 11]\nclass = NotExited", fillcolor="#f3c6a6"] ;
717 -> 718 ;
719 [label="Gender <= 0.5\ngini = 0.5\nsamples = 20\nvalue = [10, 10]\nclass = NotExited", fillcolor="#ffffff"] ;
718 -> 719 ;
720 [label="CreditScore <= 528.5\ngini = 0.346\nsamples = 9\nvalue = [2, 7]\nclass = Exited", fillcolor="#72b9ec"] ;
719 -> 720 ;
721 [label="gini = 0.0\nsamples = 1\nvalue = [1, 0]\nclass = NotExited", fillcolor="#e58139"] ;
720 -> 721 ;
722 [label="Balance <= 127516.965\ngini = 0.219\nsamples = 8\nvalue = [1, 7]\nclass = Exited", fillcolor="#55abe9"] ;
720 -> 722 ;
723 [label="gini = 0.0\nsamples = 6\nvalue = [0, 6]\nclass = Exited", fillcolor="#399de5"] ;
722 -> 723 ;
724 [label="IsActiveMember <= 0.5\ngini = 0.5\nsamples = 2\nvalue = [1, 1]\nclass = NotExited", fillcolor="#ffffff"] ;
722 -> 724 ;
725 [label="gini = 0.0\nsamples = 1\nvalue = [0, 1]\nclass = Exited", fillcolor="#399de5"] ;
724 -> 725 ;
726 [label="gini = 0.0\nsamples = 1\nvalue = [1, 0]\nclass = NotExited", fillcolor="#e58139"] ;
724 -> 726 ;
727 [label="CreditScore <= 561.0\ngini = 0.397\nsamples = 11\nvalue = [8, 3]\nclass = NotExited", fillcolor="#efb083"] ;
719 -> 727 ;
728 [label="EstimatedSalary <= 30897.796\ngini = 0.5\nsamples = 6\nvalue = [3, 3]\nclass = NotExited", fillcolor="#ffffff"] ;
727 -> 728 ;
729 [label="gini = 0.0\nsamples = 2\nvalue = [2, 0]\nclass = NotExited", fillcolor="#e58139"] ;
728 -> 729 ;
730 [label="EstimatedSalary <= 109305.465\ngini = 0.375\nsamples = 4\nvalue = [1, 3]\nclass = Exited", fillcolor="#7bbeee"] ;
728 -> 730 ;
731 [label="gini = 0.0\nsamples = 3\nvalue = [0, 3]\nclass = Exited", fillcolor="#399de5"] ;
730 -> 731 ;
732 [label="gini = 0.0\nsamples = 1\nvalue = [1, 0]\nclass = NotExited", fillcolor="#e58139"] ;
730 -> 732 ;
733 [label="gini = 0.0\nsamples = 5\nvalue = [5, 0]\nclass = NotExited", fillcolor="#e58139"] ;
727 -> 733 ;
734 [label="EstimatedSalary <= 32324.141\ngini = 0.165\nsamples = 11\nvalue = [10, 1]\nclass = NotExited", fillcolor="#e88e4d"] ;
718 -> 734 ;
735 [label="Age <= 39.5\ngini = 0.444\nsamples = 3\nvalue = [2, 1]\nclass = NotExited", fillcolor="#f2c09c"] ;
734 -> 735 ;
736 [label="gini = 0.0\nsamples = 1\nvalue = [0, 1]\nclass = Exited", fillcolor="#399de5"] ;
735 -> 736 ;
737 [label="gini = 0.0\nsamples = 2\nvalue = [2, 0]\nclass = NotExited", fillcolor="#e58139"] ;
735 -> 737 ;
738 [label="gini = 0.0\nsamples = 8\nvalue = [8, 0]\nclass = NotExited", fillcolor="#e58139"] ;
734 -> 738 ;
739 [label="EstimatedSalary <= 144082.055\ngini = 0.47\nsamples = 37\nvalue = [14, 23]\nclass = Exited", fillcolor="#b2d9f5"] ;
717 -> 739 ;
740 [label="Balance <= 131218.309\ngini = 0.393\nsamples = 26\nvalue = [7, 19]\nclass = Exited", fillcolor="#82c1ef"] ;
739 -> 740 ;
741 [label="EstimatedSalary <= 37182.954\ngini = 0.455\nsamples = 20\nvalue = [7, 13]\nclass = Exited", fillcolor="#a4d2f3"] ;
740 -> 741 ;
742 [label="Tenure <= 9.5\ngini = 0.375\nsamples = 4\nvalue = [3, 1]\nclass = NotExited", fillcolor="#eeab7b"] ;
741 -> 742 ;
743 [label="gini = 0.0\nsamples = 3\nvalue = [3, 0]\nclass = NotExited", fillcolor="#e58139"] ;
742 -> 743 ;
744 [label="gini = 0.0\nsamples = 1\nvalue = [0, 1]\nclass = Exited", fillcolor="#399de5"] ;
742 -> 744 ;
745 [label="Balance <= 129054.645\ngini = 0.375\nsamples = 16\nvalue = [4, 12]\nclass = Exited", fillcolor="#7bbeee"] ;
741 -> 745 ;
746 [label="EstimatedSalary <= 72898.855\ngini = 0.32\nsamples = 15\nvalue = [3, 12]\nclass = Exited", fillcolor="#6ab6ec"] ;
745 -> 746 ;
747 [label="gini = 0.0\nsamples = 6\nvalue = [0, 6]\nclass = Exited", fillcolor="#399de5"] ;
746 -> 747 ;
748 [label="EstimatedSalary <= 82222.18\ngini = 0.444\nsamples = 9\nvalue = [3, 6]\nclass = Exited", fillcolor="#9ccef2"] ;
746 -> 748 ;
749 [label="gini = 0.0\nsamples = 2\nvalue = [2, 0]\nclass = NotExited", fillcolor="#e58139"] ;
748 -> 749 ;
750 [label="Age <= 41.0\ngini = 0.245\nsamples = 7\nvalue = [1, 6]\nclass = Exited", fillcolor="#5aade9"] ;
748 -> 750 ;
751 [label="gini = 0.0\nsamples = 5\nvalue = [0, 5]\nclass = Exited", fillcolor="#399de5"] ;
750 -> 751 ;
752 [label="Tenure <= 6.5\ngini = 0.5\nsamples = 2\nvalue = [1, 1]\nclass = NotExited", fillcolor="#ffffff"] ;
750 -> 752 ;
753 [label="gini = 0.0\nsamples = 1\nvalue = [1, 0]\nclass = NotExited", fillcolor="#e58139"] ;
752 -> 753 ;
754 [label="gini = 0.0\nsamples = 1\nvalue = [0, 1]\nclass = Exited", fillcolor="#399de5"] ;
752 -> 754 ;
755 [label="gini = 0.0\nsamples = 1\nvalue = [1, 0]\nclass = NotExited", fillcolor="#e58139"] ;
745 -> 755 ;
756 [label="gini = 0.0\nsamples = 6\nvalue = [0, 6]\nclass = Exited", fillcolor="#399de5"] ;
740 -> 756 ;
757 [label="CreditScore <= 638.5\ngini = 0.463\nsamples = 11\nvalue = [7, 4]\nclass = NotExited", fillcolor="#f4c9aa"] ;
739 -> 757 ;
758 [label="gini = 0.0\nsamples = 2\nvalue = [0, 2]\nclass = Exited", fillcolor="#399de5"] ;
757 -> 758 ;
759 [label="CreditScore <= 666.5\ngini = 0.346\nsamples = 9\nvalue = [7, 2]\nclass = NotExited", fillcolor="#eca572"] ;
757 -> 759 ;
760 [label="CreditScore <= 649.0\ngini = 0.48\nsamples = 5\nvalue = [3, 2]\nclass = NotExited", fillcolor="#f6d5bd"] ;
759 -> 760 ;
761 [label="gini = 0.0\nsamples = 3\nvalue = [3, 0]\nclass = NotExited", fillcolor="#e58139"] ;
760 -> 761 ;
762 [label="gini = 0.0\nsamples = 2\nvalue = [0, 2]\nclass = Exited", fillcolor="#399de5"] ;
760 -> 762 ;
763 [label="gini = 0.0\nsamples = 4\nvalue = [4, 0]\nclass = NotExited", fillcolor="#e58139"] ;
759 -> 763 ;
764 [label="Tenure <= 8.5\ngini = 0.32\nsamples = 20\nvalue = [16, 4]\nclass = NotExited", fillcolor="#eca06a"] ;
704 -> 764 ;
765 [label="EstimatedSalary <= 181250.695\ngini = 0.208\nsamples = 17\nvalue = [15, 2]\nclass = NotExited", fillcolor="#e89253"] ;
764 -> 765 ;
766 [label="Age <= 41.5\ngini = 0.117\nsamples = 16\nvalue = [15, 1]\nclass = NotExited", fillcolor="#e78946"] ;
765 -> 766 ;
767 [label="gini = 0.0\nsamples = 14\nvalue = [14, 0]\nclass = NotExited", fillcolor="#e58139"] ;
766 -> 767 ;
768 [label="Gender <= 0.5\ngini = 0.5\nsamples = 2\nvalue = [1, 1]\nclass = NotExited", fillcolor="#ffffff"] ;
766 -> 768 ;
769 [label="gini = 0.0\nsamples = 1\nvalue = [1, 0]\nclass = NotExited", fillcolor="#e58139"] ;
768 -> 769 ;
770 [label="gini = 0.0\nsamples = 1\nvalue = [0, 1]\nclass = Exited", fillcolor="#399de5"] ;
768 -> 770 ;
771 [label="gini = 0.0\nsamples = 1\nvalue = [0, 1]\nclass = Exited", fillcolor="#399de5"] ;
765 -> 771 ;
772 [label="EstimatedSalary <= 98235.729\ngini = 0.444\nsamples = 3\nvalue = [1, 2]\nclass = Exited", fillcolor="#9ccef2"] ;
764 -> 772 ;
773 [label="gini = 0.0\nsamples = 2\nvalue = [0, 2]\nclass = Exited", fillcolor="#399de5"] ;
772 -> 773 ;
774 [label="gini = 0.0\nsamples = 1\nvalue = [1, 0]\nclass = NotExited", fillcolor="#e58139"] ;
772 -> 774 ;
775 [label="CreditScore <= 754.5\ngini = 0.164\nsamples = 100\nvalue = [91, 9]\nclass = NotExited", fillcolor="#e88d4d"] ;
573 -> 775 ;
776 [label="EstimatedSalary <= 82359.23\ngini = 0.069\nsamples = 84\nvalue = [81, 3]\nclass = NotExited", fillcolor="#e68640"] ;
775 -> 776 ;
777 [label="EstimatedSalary <= 78966.133\ngini = 0.157\nsamples = 35\nvalue = [32, 3]\nclass = NotExited", fillcolor="#e78d4c"] ;
776 -> 777 ;
778 [label="Age <= 41.5\ngini = 0.111\nsamples = 34\nvalue = [32, 2]\nclass = NotExited", fillcolor="#e78945"] ;
777 -> 778 ;
779 [label="Balance <= 146585.141\ngini = 0.062\nsamples = 31\nvalue = [30, 1]\nclass = NotExited", fillcolor="#e68540"] ;
778 -> 779 ;
780 [label="Balance <= 146414.664\ngini = 0.444\nsamples = 3\nvalue = [2, 1]\nclass = NotExited", fillcolor="#f2c09c"] ;
779 -> 780 ;
781 [label="gini = 0.0\nsamples = 2\nvalue = [2, 0]\nclass = NotExited", fillcolor="#e58139"] ;
780 -> 781 ;
782 [label="gini = 0.0\nsamples = 1\nvalue = [0, 1]\nclass = Exited", fillcolor="#399de5"] ;
780 -> 782 ;
783 [label="gini = 0.0\nsamples = 28\nvalue = [28, 0]\nclass = NotExited", fillcolor="#e58139"] ;
779 -> 783 ;
784 [label="EstimatedSalary <= 50971.682\ngini = 0.444\nsamples = 3\nvalue = [2, 1]\nclass = NotExited", fillcolor="#f2c09c"] ;
778 -> 784 ;
785 [label="gini = 0.0\nsamples = 2\nvalue = [2, 0]\nclass = NotExited", fillcolor="#e58139"] ;
784 -> 785 ;
786 [label="gini = 0.0\nsamples = 1\nvalue = [0, 1]\nclass = Exited", fillcolor="#399de5"] ;
784 -> 786 ;
787 [label="gini = 0.0\nsamples = 1\nvalue = [0, 1]\nclass = Exited", fillcolor="#399de5"] ;
777 -> 787 ;
788 [label="gini = 0.0\nsamples = 49\nvalue = [49, 0]\nclass = NotExited", fillcolor="#e58139"] ;
776 -> 788 ;
789 [label="CreditScore <= 784.0\ngini = 0.469\nsamples = 16\nvalue = [10, 6]\nclass = NotExited", fillcolor="#f5cdb0"] ;
775 -> 789 ;
790 [label="EstimatedSalary <= 153189.328\ngini = 0.408\nsamples = 7\nvalue = [2, 5]\nclass = Exited", fillcolor="#88c4ef"] ;
789 -> 790 ;
791 [label="gini = 0.0\nsamples = 4\nvalue = [0, 4]\nclass = Exited", fillcolor="#399de5"] ;
790 -> 791 ;
792 [label="Tenure <= 1.5\ngini = 0.444\nsamples = 3\nvalue = [2, 1]\nclass = NotExited", fillcolor="#f2c09c"] ;
790 -> 792 ;
793 [label="gini = 0.0\nsamples = 1\nvalue = [0, 1]\nclass = Exited", fillcolor="#399de5"] ;
792 -> 793 ;
794 [label="gini = 0.0\nsamples = 2\nvalue = [2, 0]\nclass = NotExited", fillcolor="#e58139"] ;
792 -> 794 ;
795 [label="Age <= 29.0\ngini = 0.198\nsamples = 9\nvalue = [8, 1]\nclass = NotExited", fillcolor="#e89152"] ;
789 -> 795 ;
796 [label="gini = 0.0\nsamples = 1\nvalue = [0, 1]\nclass = Exited", fillcolor="#399de5"] ;
795 -> 796 ;
797 [label="gini = 0.0\nsamples = 8\nvalue = [8, 0]\nclass = NotExited", fillcolor="#e58139"] ;
795 -> 797 ;
798 [label="Balance <= 108438.258\ngini = 0.079\nsamples = 2461\nvalue = [2359, 102]\nclass = NotExited", fillcolor="#e68642"] ;
2 -> 798 ;
799 [label="Age <= 36.5\ngini = 0.052\nsamples = 1811\nvalue = [1763, 48]\nclass = NotExited", fillcolor="#e6843e"] ;
798 -> 799 ;
800 [label="Age <= 18.5\ngini = 0.029\nsamples = 1217\nvalue = [1199, 18]\nclass = NotExited", fillcolor="#e5833c"] ;
799 -> 800 ;
801 [label="Tenure <= 6.5\ngini = 0.245\nsamples = 7\nvalue = [6, 1]\nclass = NotExited", fillcolor="#e9965a"] ;
800 -> 801 ;
802 [label="gini = 0.0\nsamples = 4\nvalue = [4, 0]\nclass = NotExited", fillcolor="#e58139"] ;
801 -> 802 ;
803 [label="CreditScore <= 660.0\ngini = 0.444\nsamples = 3\nvalue = [2, 1]\nclass = NotExited", fillcolor="#f2c09c"] ;
801 -> 803 ;
804 [label="gini = 0.0\nsamples = 2\nvalue = [2, 0]\nclass = NotExited", fillcolor="#e58139"] ;
803 -> 804 ;
805 [label="gini = 0.0\nsamples = 1\nvalue = [0, 1]\nclass = Exited", fillcolor="#399de5"] ;
803 -> 805 ;
806 [label="CreditScore <= 477.5\ngini = 0.028\nsamples = 1210\nvalue = [1193, 17]\nclass = NotExited", fillcolor="#e5833c"] ;
800 -> 806 ;
807 [label="EstimatedSalary <= 154924.367\ngini = 0.113\nsamples = 50\nvalue = [47, 3]\nclass = NotExited", fillcolor="#e78946"] ;
806 -> 807 ;
808 [label="gini = 0.0\nsamples = 37\nvalue = [37, 0]\nclass = NotExited", fillcolor="#e58139"] ;
807 -> 808 ;
809 [label="EstimatedSalary <= 166886.961\ngini = 0.355\nsamples = 13\nvalue = [10, 3]\nclass = NotExited", fillcolor="#eda774"] ;
807 -> 809 ;
810 [label="CreditScore <= 438.0\ngini = 0.444\nsamples = 3\nvalue = [1, 2]\nclass = Exited", fillcolor="#9ccef2"] ;
809 -> 810 ;
811 [label="gini = 0.0\nsamples = 1\nvalue = [1, 0]\nclass = NotExited", fillcolor="#e58139"] ;
810 -> 811 ;
812 [label="gini = 0.0\nsamples = 2\nvalue = [0, 2]\nclass = Exited", fillcolor="#399de5"] ;
810 -> 812 ;
813 [label="CreditScore <= 472.5\ngini = 0.18\nsamples = 10\nvalue = [9, 1]\nclass = NotExited", fillcolor="#e88f4f"] ;
809 -> 813 ;
814 [label="gini = 0.0\nsamples = 8\nvalue = [8, 0]\nclass = NotExited", fillcolor="#e58139"] ;
813 -> 814 ;
815 [label="CreditScore <= 475.5\ngini = 0.5\nsamples = 2\nvalue = [1, 1]\nclass = NotExited", fillcolor="#ffffff"] ;
813 -> 815 ;
816 [label="gini = 0.0\nsamples = 1\nvalue = [0, 1]\nclass = Exited", fillcolor="#399de5"] ;
815 -> 816 ;
817 [label="gini = 0.0\nsamples = 1\nvalue = [1, 0]\nclass = NotExited", fillcolor="#e58139"] ;
815 -> 817 ;
818 [label="HasCrCard <= 0.5\ngini = 0.024\nsamples = 1160\nvalue = [1146, 14]\nclass = NotExited", fillcolor="#e5833b"] ;
806 -> 818 ;
819 [label="gini = 0.0\nsamples = 333\nvalue = [333, 0]\nclass = NotExited", fillcolor="#e58139"] ;
818 -> 819 ;
820 [label="EstimatedSalary <= 109485.148\ngini = 0.033\nsamples = 827\nvalue = [813, 14]\nclass = NotExited", fillcolor="#e5833c"] ;
818 -> 820 ;
821 [label="EstimatedSalary <= 109241.633\ngini = 0.051\nsamples = 462\nvalue = [450, 12]\nclass = NotExited", fillcolor="#e6843e"] ;
820 -> 821 ;
822 [label="EstimatedSalary <= 89576.992\ngini = 0.047\nsamples = 461\nvalue = [450, 11]\nclass = NotExited", fillcolor="#e6843e"] ;
821 -> 822 ;
823 [label="CreditScore <= 635.5\ngini = 0.027\nsamples = 361\nvalue = [356, 5]\nclass = NotExited", fillcolor="#e5833c"] ;
822 -> 823 ;
824 [label="CreditScore <= 607.5\ngini = 0.064\nsamples = 151\nvalue = [146, 5]\nclass = NotExited", fillcolor="#e68540"] ;
823 -> 824 ;
825 [label="gini = 0.0\nsamples = 110\nvalue = [110, 0]\nclass = NotExited", fillcolor="#e58139"] ;
824 -> 825 ;
